tree
version=v4
num_class=1
num_tree_per_iteration=1
label_index=0
max_feature_idx=66
objective=binary sigmoid:1
feature_names=0 1 2 3 4 5 6 7 8 9 10 11 12 13 14 15 16 17 18 19 20 21 22 23 24 25 26 27 28 29 30 31 32 33 34 35 36 37 38 39 40 41 42 43 44 45 46 47 48 49 50 51 52 53 54 55 56 57 58 59 60 61 62 63 64 65 66
feature_infos=[-1.4148360862244591:2.4082946721607215] [-2.6375345760462396:1.9807535973016144] [-0.74634750651986492:5.9055536478740693] [0:1] [0:1] [0:1] [0:1] [0:1] [0:1] [0:1] [0:1] [0:1] [0:1] [0:1] [0:1] [0:1] [0:1] [0:1] [0:1] [0:1] [0:1] [0:1] [0:1] [0:1] [0:1] [0:1] [0:1] [0:1] [0:1] [0:1] [0:1] [0:1] [0:1] [0:1] [0:1] [0:1] [0:1] [0:1] [0:1] [0:1] [0:1] [0:1] [0:1] [0:1] [0:1] [0:1] [0:1] [0:1] [0:1] [0:1] [0:1] [0:1] [0:1] [0:1] [0:1] [0:1] [0:1] [0:1] [0:1] [0:1] [0:1] [0:1] [0:1] [0:1] [0:1] [0:1] [0:23]
tree_sizes=3507 3502 3489 3507 3511 3496 3491 3486 3493 3502 3509 3508 3509 3504 3525 3523 3538 3523 3524 3523 3541 3531 3535 3546 3525 3545 3530 3531 3530 3526 3540 3543 3533 3552 3545 3540 3539 3544 3539 3554 3546 3546 3548 3552 3552 3547 3539 3540 3544 3544 3535 3540 3537 3545 3547 3556 3548 3556 3533 3547 3553 3545 3553 3540 3548 3544 3551 3547 3546 3534 3525 3534 3526 3524 3524 3515 3532 3538 3526 3526 3540 3521 3503 3530 3547 3555 3556 3553 3549 3542 3550 3565 3565 3543 3556 3556 3564 3541 3562 3548 3565 3516 3556 3548 3539 3560 3496 3514 3518 3540 3555 3456 3525 3515 3541 3551 3540 3548 3544 3533 3532 3564 3568 3533 3529 3523 3560 3548 3514 3553 3552 3578 3536 3539 3563 3594 3552 3552 3580 3535 3568 3596 3538 3546 3595 3578 3551 3566 3576 3530 3587 3568 3588 3548 3573 3570 3562 3553 3537 3541 3544 3554 3584 3621 3588 3559 3588 3528 3481 3545 3603 3548 3573 3562 3543 3549 3564 3637 3612 3595 3593 3563 3578 3487 3538 3563 3550 3518 3558 3562 3577 3542 3564 3542 3560 3550 3540 3552 3510 3557 3563 3568 3649 3587 3543 3570 3539 3590 3564 3571 3553 3514 3544 3519 3578 3576 3579 3553 3593 3569 3553 3565 3570 3598 3563 3542 3531 3541 3544 3537 3555 3550 3582 3588 3549 3545 3589 3561 3546 3584 3576 3556 3581 3591 3560 3576 3590 3621 3608 3595 3601 3547 3554 3552 3585 3587 3596 3639 3623 3616 3611 3587 3596 3599 3598 3562 3531 3566 3555 3604 3562 3611 3642 3621 3561 3619 3556 3591 3608 3575 3556 3552 3545 3601 3568 3551 3596 3566 3603 3584 3589 3526 3573 3563 3587 3582 3586 3584 3619 3618 3602 3610 3574 3571 3615 3638 3563 3618 3648 3656 3643 3599 3626 3591 3571 3635 3607 3630 3562 3595 3633 3606 3579 3603 3590 3630 3631 3661 3616 3608 3563 3601 3585 3629 3579 3609 3647 3621 3565 3594 3630 3613 3594 3584 3607 3574 3633 3582 3601 3569 3640 3609 3598 3623 3577 3619 3592 3583 3593 3603 3545 3602 3610 3623 3615 3636 3629 3658 3569 3593 3599 3594 3598 3594 3601 3655 3652 3623 3602 3612 3586 3646 3629 3602 3620 3653 3626 3638 3664 3645 3602 3637 3597 3594 3568 3560 3603 3594 3597 3558 3540 3591 3572 3588 3601 3514 3564 3593 3583 3632 3644 3679 3519 3541 3574 3538 3631 3569 3686 3632 3663 3541 3508 3566 3591 3574 3624 3522 3587 3579 3558 3500 3569 3557 3610 3599 3567 3588 3566 3608 3589 3582 3557 3564 3590 3555 3589 3585 3573 3591 3598 3623 3467 3280 2812 2485 2935 2130 2475 2034 2258 2605 2157 2040 1622 1939 1824 1152 1583 1378 1599 925 698 478

Tree=0
num_leaves=31
num_cat=0
split_feature=52 17 52 8 26 25 57 11 1 12 35 17 27 27 0 58 25 2 36 36 56 8 66 38 1 66 7 5 33 37
split_gain=1.30007e+06 275553 127696 124790 64142.8 62215.6 40928.8 31691.6 24025.6 23504.9 17063.9 16501.1 15641.7 161250 10678 9578.28 9433.12 7745.47 14348.9 7316.42 5954.35 5738 5132.09 4770.99 4162.12 3355.79 2988.46 26621.2 2783.29 26431.8
threshold=1.0000000180025095e-35 1.0000000180025095e-35 0.99996710188014903 0.99999625705163087 0.99990377308903888 0.99999974705382688 0.99999625705163087 0.9999597111130808 -0.90431655474823691 1.0000000180025095e-35 0.99987507688177935 0.99999746491708463 1.0000000180025095e-35 0.99999974705382688 -1.3939622511797176 0.99990377308903888 1.0000000180025095e-35 1.4842038302261542 1.0000000180025095e-35 0.99984905969264803 0.99994748169629999 0.75499751684181216 1.0000000180025095e-35 0.99996502345453642 -0.26043885481581613 21.500000000000004 1.0000000180025095e-35 1.0000000180025095e-35 1.0000000180025095e-35 0.99999974705382688
decision_type=2 2 2 2 2 2 2 2 2 2 2 2 2 2 2 2 2 2 2 2 2 2 2 2 2 2 2 2 2 2
left_child=12 2 -2 4 6 16 7 8 21 17 14 -12 -1 -14 -10 20 -4 -7 -19 -20 22 -3 -16 25 -11 28 -15 -28 29 -24
right_child=1 3 5 -5 -6 9 -8 -9 10 24 11 -13 13 26 15 -17 -18 18 19 -21 -22 -23 23 -25 -26 -27 27 -29 -30 -31
leaf_value=-1.05629039430797 -0.56629113881059689 -1.0562912797309145 -1.0558365232196196 -1.0562767809694955 -1.0562912797309145 -1.0562912797309145 -1.0562912797309145 -1.0560285802853067 -1.0200669635070903 -1.0557938176589143 -0.56629113881059689 -1.0562262325862286 -0.56629113881059689 -1.0562854308685667 -1.0562912797309145 -1.0562912797309145 -0.56629113881059689 -1.0561813978036638 -0.56629113881059689 -1.0555462212297686 -1.0562912797309145 -0.56629113881059689 -0.5865206856205698 -1.0544102811093394 -0.56629113881059689 -1.0562912797309145 -1.0562808968321602 -0.56629113881059689 -0.57141043022524041 -1.056131670564491
leaf_weight=225880.75809669495 8862.4466949403286 1395.5098443329334 439.79580499231815 6897.1410791277885 3291.631804510951 32389.787568598986 2018.1627450436354 1522.6526686996222 565.91822145879269 201.02035634219646 1243.4690672010183 1537.3465424627066 7598.1613065749407 68389.370124995708 227.75504332780838 429.18356283009052 3748.3663806468248 2730.2033778131008 1268.7751831263304 402.65295742452145 265.30605405569077 288.36727260053158 27543.870450481772 212.65300640463829 1278.162935808301 147.95914553105831 9631.2220069617033 1253.0609014630318 93743.445221617818 1253.0609014630318
leaf_count=1106816 43426 6838 2155 33796 16129 158710 9889 7461 2773 985 6093 7533 37231 335108 1116 2103 18367 13378 6217 1973 1300 1413 134965 1042 6263 725 47193 6140 459343 6140
internal_value=-0.916291 -0.712853 -0.911552 -0.641334 -0.620242 -0.983618 -0.609401 -0.602483 -0.597124 -1.02366 -0.592155 -0.837147 -1.04242 -1.00636 -0.586678 -0.584697 -0.617698 -1.03938 -0.914912 -0.684154 -0.583057 -0.972378 -0.582037 -0.581158 -0.632814 -0.580338 -1.04854 -0.99987 -0.579763 -0.606955
internal_weight=0 193905 51321.2 142583 135686 42458.8 132395 130376 128854 38270.6 127170 2780.82 312753 86871.8 124389 123823 4188.16 36791.4 4401.63 1671.43 123394 1683.88 123129 122901 1479.18 122688 79273.7 10884.3 122540 28796.9
internal_count=2482621 950133 251474 698659 664863 208048 648734 638845 631384 187526 623133 13626 1532488 425672 609507 606734 20522 180278 21568 8190 604631 8251 603331 602215 7248 601173 388441 53333 600448 141105
is_linear=0
shrinkage=1


Tree=1
num_leaves=31
num_cat=0
split_feature=52 17 52 8 25 26 57 11 12 1 27 27 35 17 0 2 36 58 25 36 8 56 66 38 1 7 5 66 28 37
split_gain=1.02411e+06 185391 92963 86146.6 48271 43777.3 27757.8 21397.1 18763.1 15610 14628.3 125311 10465.8 12025 7023.77 6971.45 11242.7 6395.27 6336.55 5032.98 4411.83 3971.9 3421.11 3175.77 2810.89 2794.54 20700 2234.57 2022.39 14259.1
threshold=1.0000000180025095e-35 1.0000000180025095e-35 0.99996710188014903 0.99999625705163087 0.99999974705382688 0.99990377308903888 0.99999625705163087 0.9999597111130808 1.0000000180025095e-35 -0.90431655474823691 1.0000000180025095e-35 0.99999974705382688 0.99987507688177935 0.99999746491708463 -1.3939622511797176 1.4842038302261542 1.0000000180025095e-35 0.99990377308903888 1.0000000180025095e-35 0.99984905969264803 0.75499751684181216 0.99994748169629999 1.0000000180025095e-35 0.99996502345453642 -0.26043885481581613 1.0000000180025095e-35 1.0000000180025095e-35 21.500000000000004 1.0000000180025095e-35 0.99999974705382688
decision_type=2 2 2 2 2 2 2 2 2 2 2 2 2 2 2 2 2 2 2 2 2 2 2 2 2 2 2 2 2 2
left_child=10 2 -2 5 18 6 7 9 15 20 -1 -12 14 -14 -11 -6 -17 21 -4 -18 -3 22 -16 27 -10 -13 -27 28 29 -24
right_child=1 3 4 -5 8 -7 -8 -9 24 12 11 25 13 -15 17 16 19 -19 -20 -21 -22 -23 23 -25 -26 26 -28 -29 -30 -31
leaf_value=-0.13477339264853103 0.27617208219538997 -0.13477430605283577 -0.13430545689226125 -0.13475936958006132 -0.13477430605283577 -0.13477430605283577 -0.13477430605283577 -0.13450343761060921 -0.13426143826106524 -0.09810323363248416 0.27617208219538997 -0.1347682745602013 0.27617208219538997 -0.13470722604147159 -0.13477430605283577 -0.13466100285481422 0.27617208219538997 -0.13477430605283577 0.27617208219538997 -0.13400627524108963 0.27617208219538997 -0.13477430605283577 0.25585532078863527 -0.13283645307923855 0.27617208219538997 -0.13476359900759702 0.27617208219538997 -0.13477430605283577 0.27213823758657529 -0.14145794013383067
leaf_weight=211894.61229324341 10030.610338866711 1309.1016774177551 412.65502959489822 6470.1243368387222 30384.253761768341 3087.8182151317596 1893.2007148265839 1428.5536464750767 188.61883349716663 540.12979397177696 8599.6788450777531 64154.973428070545 1407.3713626563549 1442.2014918476343 213.65274524688721 2561.2888658940792 1436.0130906999111 402.60907101631165 4242.4404756128788 377.85738718509674 326.37711068987846 248.87864589691162 22490.165499299765 199.66734874248505 1446.6382478773594 9034.9148913770914 1418.2275015115738 138.79770636558533 114691.84730653465 941.08460345864296
leaf_count=1106816 43426 6838 2155 33796 158710 16129 9889 7461 985 2773 37231 335108 6093 7533 1116 13378 6217 2103 18367 1973 1413 1300 97655 1042 6263 47193 6140 725 498143 4650
internal_value=0 0.168774 0.00326196 0.222545 -0.0634243 0.237879 0.245671 0.250612 -0.102207 0.254423 -0.120822 -0.0852921 0.257943 0.0682214 0.261808 -0.11778 0.000239017 0.263204 0.239785 0.190726 -0.0527656 0.264357 0.265073 0.26569 0.228831 -0.126956 -0.07901 0.266266 0.266669 0.239898
internal_weight=0 208312 51080.4 157232 41049.8 150761 147674 145780 36394.7 144352 295102 83207.8 142716 2849.57 139867 34759.4 4375.16 139327 4655.1 1813.87 1635.48 138924 138675 138462 1635.26 74608.1 10453.1 138262 138123 23431.3
internal_count=2482621 950133 251474 698659 208048 664863 648734 638845 187526 631384 1532488 425672 623133 13626 609507 180278 21568 606734 20522 8190 8251 604631 603331 602215 7248 388441 53333 601173 600448 102305
is_linear=0
shrinkage=0.1


Tree=2
num_leaves=31
num_cat=0
split_feature=52 17 52 8 25 26 57 11 12 27 27 1 35 17 2 36 58 25 0 36 8 56 7 5 66 38 1 41 66 33
split_gain=837594 135740 72269.5 64676.3 39227.3 32640.7 20618.2 15850.8 15568.9 13528.8 102298 11227.3 7212.28 9375.71 6267.8 9180.4 5165.29 4691.74 4666.6 3780.42 3573.24 2921.41 2584.43 16907.5 2515.3 2332.67 2087.92 1816.51 1588.09 1327.03
threshold=1.0000000180025095e-35 1.0000000180025095e-35 0.99996710188014903 0.99999625705163087 0.99999974705382688 0.99990377308903888 0.99999625705163087 0.9999597111130808 1.0000000180025095e-35 1.0000000180025095e-35 0.99999974705382688 -0.90431655474823691 0.99987507688177935 0.99999746491708463 1.4842038302261542 1.0000000180025095e-35 0.99990377308903888 1.0000000180025095e-35 -1.3939622511797176 0.99984905969264803 0.75499751684181216 0.99994748169629999 1.0000000180025095e-35 1.0000000180025095e-35 1.0000000180025095e-35 0.99996502345453642 -0.26043885481581613 1.0000000180025095e-35 21.500000000000004 1.0000000180025095e-35
decision_type=2 2 2 2 2 2 2 2 2 2 2 2 2 2 2 2 2 2 2 2 2 2 2 2 2 2 2 2 2 2
left_child=9 2 -2 5 17 6 7 11 14 -1 -11 20 16 -14 -6 -16 18 -4 -13 -17 -3 24 -12 -24 -20 27 -10 28 29 -26
right_child=1 3 4 -5 8 -7 -8 -9 26 10 22 12 13 -15 15 19 -18 -19 21 -21 -22 -23 23 -25 25 -27 -28 -29 -30 -31
leaf_value=-0.13038877096791521 0.2336586731368204 -0.13038972891848249 -0.12989885056885156 -0.13037406383892788 -0.13038972891848249 -0.13038972891848249 -0.13038972891848249 -0.130106105168171 -0.12985278531709049 0.2336586731368204 -0.13038340626319886 -0.089640707431281635 0.2336586731368204 -0.13031947402006763 -0.13027106854011794 0.2336586731368204 -0.13060381555863029 0.2336586731368204 -0.13038972891848249 -0.12958577684728209 0.2336586731368204 -0.13038972891848249 -0.13037850538616086 0.2336586731368204 0.20872614114776639 -0.12836277358258233 0.2336586731368204 -0.15772528341693359 -0.13038972891848249 0.2312710746885358
leaf_weight=197840.8128452301 10631.221304148436 1222.2755407392979 385.39084777235985 6041.046361207962 28369.018875509501 2883.0187476724386 1767.6342238038778 1334.0151393413544 176.16127140820026 9114.6087683588266 59900.108381509781 476.22330106794834 1491.6416756361723 1346.6001431643963 2391.5693878233433 1521.998407587409 414.52375222742558 4496.4685140997171 199.48223215341568 352.95371317863464 345.91985683143139 232.37177580595016 8435.7273436635733 1503.1478562951088 34028.01979097724 186.63455107808113 1533.2597758919001 123.65147389471531 125.12326389551163 112182.27346466482
leaf_count=1106816 43426 6838 2155 33796 158710 16129 9889 7461 985 37231 335108 2565 6093 7533 13378 6217 2311 18367 1116 1973 1413 1300 47193 6140 140790 1042 6263 557 700 459126
internal_value=0 0.146927 0.00239375 0.19076 -0.0602835 0.203011 0.209193 0.213098 -0.0979854 -0.116423 -0.0814261 0.216103 0.218871 0.0609697 -0.113394 -0.000389533 0.2219 0.204958 0.22289 0.165279 -0.0500862 0.223902 -0.122548 -0.0753218 0.224463 0.224945 0.196198 0.225396 0.225719 0.226024
internal_weight=0 214258 49858 164400 39226.8 158359 155476 153709 34345 276794 78953.6 152375 150807 2838.24 32635.5 4266.52 147968 4881.86 147554 1874.95 1568.2 147078 69839 9938.88 146845 146646 1709.42 146459 146335 146210
internal_count=2482621 950133 251474 698659 208048 664863 648734 638845 187526 1532488 425672 631384 623133 13626 180278 21568 609507 20522 607196 8190 8251 604631 388441 53333 603331 602215 7248 601173 600616 599916
is_linear=0
shrinkage=0.1


Tree=3
num_leaves=31
num_cat=0
split_feature=52 8 17 8 26 12 57 52 27 27 11 1 36 36 35 17 58 0 8 7 5 56 66 10 38 17 28 1 1 2
split_gain=700356 104706 62661.7 56616 25549.5 23562.6 16097.4 15785 12424.2 85762.9 12352.7 8540.82 6596.42 9225.78 5298.8 7591.64 4009.93 3593.88 2977.37 2373.46 14181.4 2265.76 1950.28 1834.52 1807.37 1518.68 6153.18 10184.1 10465.2 1471.72
threshold=1.0000000180025095e-35 0.99999625705163087 1.0000000180025095e-35 1.0000000180025095e-35 0.99990377308903888 1.0000000180025095e-35 0.99999625705163087 0.99996710188014903 1.0000000180025095e-35 0.99999974705382688 0.9999597111130808 -0.90431655474823691 1.0000000180025095e-35 0.99984905969264803 0.99987507688177935 0.99999746491708463 0.99990377308903888 -1.3939622511797176 0.75499751684181216 1.0000000180025095e-35 1.0000000180025095e-35 0.99994748169629999 1.0000000180025095e-35 1.0000000180025095e-35 0.99996502345453642 0.99999746491708463 1.0000000180025095e-35 0.75583139777472452 -0.25494142630878841 -0.18735996502769256
decision_type=2 2 2 2 2 2 2 2 2 2 2 2 2 2 2 2 2 2 2 2 2 2 2 2 2 2 2 2 2 2
left_child=8 2 3 5 6 12 10 -3 -1 -10 11 18 -2 -14 16 -16 17 -13 -4 -11 -21 22 -19 -7 25 -24 27 28 -27 -30
right_child=1 7 4 -5 -6 23 -8 -9 9 19 -12 14 13 -15 15 -17 -18 21 -20 20 -22 -23 24 -25 -26 26 -28 -29 29 -31
leaf_value=-0.12667367171871266 -0.12665818588884234 0.20580846181364154 -0.12667468523906197 0.20581209197406414 -0.12667468523906197 -0.12614712990128757 -0.12667468523906197 -0.12665845845394022 0.20580846181364154 -0.12666798458110509 -0.12637413895583158 -0.084769073613613369 0.20580846181364154 -0.12651913580995003 0.20580846181364154 -0.12660023661693356 -0.12685741757592126 -0.12667468523906197 0.20580846181364154 -0.12666280139483924 0.20580846181364154 -0.12667468523906197 0.20881093439571596 0.20580846181364154 -0.12452960189165746 -0.17047556024328783 0.1982517505879664 -0.15411226142553436 -0.16950717344186722 0.20528109027435268
leaf_weight=183990.63404464722 16495.993408620358 1562.5044780224562 1136.7073891162872 12318.347053408623 2681.1865280866623 175.86568808555603 1643.8870095014572 16596.842922016978 9300.33640627563 55706.898058772087 1240.8577910810709 454.38423626124859 1553.0120447427034 1807.7022178024054 1522.0367361456156 1252.3866590112448 385.57685419917107 185.51702928543091 352.96863748133183 7845.2232861667871 1533.777377307415 216.10406637191772 70484.754562944174 3119.5133367776871 173.80186551809311 873.12316438555717 70808.496535092592 1261.6117828041315 106.57683618366718 6193.9260337054729
leaf_count=1106816 99230 6255 6838 49313 16129 1057 9889 99838 37231 335108 7461 2565 6217 10872 6093 7533 2311 1116 1413 47193 6140 1300 282466 12488 1042 3836 283953 5586 470 24862
internal_value=0 0.131689 0.152926 0.0326092 0.179438 -0.0595454 0.184622 -0.0980516 -0.112731 -0.0782433 0.187889 0.190399 -0.100643 0.027052 0.192705 0.0557577 0.195219 0.196042 -0.0478951 -0.118832 -0.0722927 0.196891 0.197357 0.188093 0.197758 0.198132 0.188634 0.107899 0.153979 0.198941
internal_weight=0 214604 196444 35470.4 160974 23152.1 158293 18159.3 258377 74386.2 156649 155408 19856.7 3360.71 153918 2774.42 151144 150758 1489.68 65085.9 9379 150304 150088 3295.38 149902 149728 79243.7 8435.24 7173.63 6300.5
internal_count=2482621 950133 844040 179177 664863 129864 648734 106093 1532488 425672 638845 631384 116319 17089 623133 13626 609507 607196 8251 388441 53333 604631 603331 13545 602215 601173 318707 34754 29168 25332
is_linear=0
shrinkage=0.1


Tree=4
num_leaves=31
num_cat=0
split_feature=52 8 17 8 26 12 52 57 27 27 11 1 36 36 58 0 35 17 8 7 5 56 66 10 38 41 36 8 33 37
split_gain=594594 85581.3 49040.9 46505.8 20652.5 19996.7 13538.1 12988.1 11357 73108.9 9953.55 6746.41 5877.86 7699.81 4216.96 3697.46 2955.96 5577.14 2525.67 2169.65 12094.2 1819.47 1565.83 1479.92 1450.27 1306.39 1156.9 1130.94 1101.54 12961.1
threshold=1.0000000180025095e-35 0.99999625705163087 1.0000000180025095e-35 1.0000000180025095e-35 0.99990377308903888 1.0000000180025095e-35 0.99996710188014903 0.99999625705163087 1.0000000180025095e-35 0.99999974705382688 0.9999597111130808 -0.90431655474823691 1.0000000180025095e-35 0.99984905969264803 0.99990377308903888 -1.3939622511797176 0.99987507688177935 0.99999746491708463 0.75499751684181216 1.0000000180025095e-35 1.0000000180025095e-35 0.99994748169629999 1.0000000180025095e-35 1.0000000180025095e-35 0.99996502345453642 1.0000000180025095e-35 0.99984905969264803 0.98403510411308226 1.0000000180025095e-35 0.99999974705382688
decision_type=2 2 2 2 2 2 2 2 2 2 2 2 2 2 2 2 2 2 2 2 2 2 2 2 2 2 2 2 2 2
left_child=8 2 3 5 7 12 -3 10 -1 -10 11 18 -2 -14 15 27 21 -18 -4 -11 -21 22 -17 -7 25 26 28 -13 29 -24
right_child=1 6 4 -5 -6 23 -8 -9 9 19 -12 14 13 -15 -16 16 17 -19 -20 20 -22 -23 24 -25 -26 -27 -28 -29 -30 -31
leaf_value=-0.12349985271235375 -0.12348318960470257 0.18612693148271497 -0.12350093495272529 0.18612993668434097 -0.12350093495272529 -0.12293629989988558 -0.12348351004193447 -0.12350093495272529 0.18612693148271497 -0.12349377223654155 -0.12317950526742615 -0.12667430708267416 0.18612693148271497 -0.12333474103721342 -0.12362092025104916 -0.12350093495272529 0.18612693148271497 -0.1234016747235456 0.18612693148271497 -0.1234882224920979 0.18612693148271497 -0.12350093495272529 0.17552504138816358 0.18612693148271497 -0.12121033360016048 -0.15389270905139471 -0.18153714666790563 0.46421711028805035 0.18399056221330545 -0.15008386612532332
leaf_weight=170537.96576118469 15290.056496545672 1555.0624772161245 1053.5950900614262 12259.693924486637 2485.147003158927 163.0703766644001 15383.526704490185 1523.6914076656103 9256.0401421636343 51634.046026170254 1150.382601544261 497.34243410825729 1545.6152551323175 1675.7168584764004 474.40872147679329 171.95263534784317 1514.7874778062105 945.43934136629105 351.28749485313892 7271.6691934168339 1526.472199857235 200.30324906110764 33646.062101274729 3104.6555100679398 161.34581863880157 117.96278311312199 88.936618283390999 34.647501781582832 114220.99395950139 1268.5900888442993
leaf_count=1106816 99230 6255 6838 49313 16129 1057 99838 9889 37231 335108 7461 2999 6217 10872 3070 1116 6093 6135 1413 47193 6140 1300 135062 12488 1042 557 377 205 459076 6101
internal_value=0 0.120501 0.139327 0.0303374 0.162527 -0.0573598 -0.0950594 0.167043 -0.109601 -0.0755871 0.169883 0.172061 -0.0976187 0.0251469 0.17406 0.174984 0.175903 0.0671783 -0.0460792 -0.115672 -0.0697702 0.177687 0.17809 0.170704 0.178437 0.178761 0.179024 -0.0881907 0.179239 0.163694
internal_weight=0 210884 193946 34038.8 159907 21779.1 16938.6 157422 240226 69688.2 155898 154748 18511.4 3221.33 153343 152868 152336 2460.23 1404.88 60432.2 8798.14 149876 149676 3267.73 149504 149343 149225 531.99 149136 34914.7
internal_count=2482621 950133 844040 179177 664863 129864 106093 648734 1532488 425672 638845 631384 116319 17089 623133 620063 616859 12228 8251 388441 53333 604631 603331 13545 602215 601173 600616 3204 600239 141163
is_linear=0
shrinkage=0.1


Tree=5
num_leaves=31
num_cat=0
split_feature=52 8 17 8 12 26 52 57 27 27 11 1 36 36 58 0 35 17 8 7 5 66 52 10 66 38 56 41 8 28
split_gain=510264 71245.3 39363.5 38902.1 17172.7 17055.6 11732.6 10710.9 10348.6 63037.8 8200.14 5464.28 5245.94 6526.4 3469.69 3047.93 2324.73 4691.47 2169.07 1977.1 10432.1 1529.27 10790.7 1221.96 1170.18 1047.76 912.402 811.862 811.591 743.368
threshold=1.0000000180025095e-35 0.99999625705163087 1.0000000180025095e-35 1.0000000180025095e-35 1.0000000180025095e-35 0.99990377308903888 0.99996710188014903 0.99999625705163087 1.0000000180025095e-35 0.99999974705382688 0.9999597111130808 -0.90431655474823691 1.0000000180025095e-35 0.99984905969264803 0.99990377308903888 -1.3939622511797176 0.99987507688177935 0.99999746491708463 0.75499751684181216 1.0000000180025095e-35 1.0000000180025095e-35 9.0015792170675351 0.99996710188014903 1.0000000180025095e-35 21.500000000000004 0.99996502345453642 0.99994748169629999 1.0000000180025095e-35 0.98403510411308226 1.0000000180025095e-35
decision_type=2 2 2 2 2 2 2 2 2 2 2 2 2 2 2 2 2 2 2 2 2 2 2 2 2 2 2 2 2 2
left_child=8 2 3 4 12 7 -3 10 -1 -10 11 18 -2 -14 15 28 21 -18 -4 -11 -21 22 -17 -6 25 26 27 29 -13 -23
right_child=1 6 5 -5 23 -7 -8 -9 9 19 -12 14 13 -15 -16 16 17 -19 -20 20 -22 24 -24 -25 -26 -27 -28 -29 -30 -31
leaf_value=-0.1207694404156698 -0.12075140990782418 0.17149984286395478 -0.12077061973038312 0.17150243643322086 -0.1201621153715836 -0.12077061973038312 -0.12075176601855156 -0.12077061973038312 0.17149984286395478 -0.12076289973092109 -0.12042441572217029 -0.12350398676620777 0.17149984286395478 -0.12059173366640706 -0.12087444589729393 0.1764657036232502 0.17149984286395478 -0.1206639932104769 0.17149984286395478 -0.12075692133133378 0.17149984286395478 0.14942278625138894 -0.16990146497250808 0.17149984286395478 -0.12864967362489083 -0.11788785372506004 -0.12077061973038312 -0.1474991628880534 0.32895675126034107 0.16944922046586577
leaf_weight=157617.20817756653 14131.802748128772 1520.5647899955511 973.76887702941895 11987.73497185111 150.78244878351688 2296.8584699630737 14218.18759649992 1408.2480878829956 9050.7030689567327 47722.229321062565 1063.4907760620117 460.96630159020424 1511.3271461874247 1548.9550248831511 438.51135993003845 5005.2891068160534 1481.1832558661699 873.87336865067482 343.4944921284914 6720.794284299016 1492.6087626814842 21974.4891859442 1096.4901147484779 3035.7814704179764 135.2427339553833 130.21590185165405 110.93389225006104 82.488347291946411 43.374023884534836 118424.63320530951
leaf_count=1106816 99230 6255 6838 49313 1057 16129 99838 9889 37231 335108 7461 2999 6217 10872 3070 20384 6093 6135 1413 47193 6140 90566 5461 12488 807 909 779 406 205 485319
internal_value=0 0.111892 0.12894 0.0285608 -0.0555246 0.14972 -0.0925165 0.153753 -0.106925 -0.0733459 0.156286 0.158227 -0.0950457 0.0236583 0.160005 0.160827 0.161656 0.0630888 -0.0445571 -0.112963 -0.0676456 0.163236 0.114224 0.157699 0.165359 0.165642 0.165904 0.166131 -0.0845917 0.166315
internal_weight=0 204449 188710 32366.4 20378.6 156344 15738.8 154047 222604 64986.3 152638 151575 17192.1 3060.28 150258 149819 149315 2355.06 1317.26 55935.6 8213.4 146960 6101.78 3186.56 140858 140723 140593 140482 504.34 140399
internal_count=2482621 950133 844040 179177 129864 664863 106093 648734 1532488 425672 638845 631384 116319 17089 623133 620063 616859 12228 8251 388441 53333 604631 25845 13545 578786 577979 577070 576291 3204 575885
is_linear=0
shrinkage=0.1


Tree=6
num_leaves=31
num_cat=0
split_feature=52 8 26 11 17 6 52 27 27 57 36 27 1 58 0 36 8 35 17 7 5 17 33 30 52 66 2 60 4 31
split_gain=441357 60085.4 32320.9 23827.4 14466.2 25179.5 10244.6 9409.12 54807.6 7390.12 7342.08 6414.65 4502.7 2899.62 2544.76 2109.12 1879.65 1863.56 3997.36 1797.69 9073.18 1412.75 5568.97 10202 10404.5 3540.39 2787.77 1110.37 873.792 781.561
threshold=1.0000000180025095e-35 0.99999625705163087 0.99990377308903888 0.9999597111130808 1.0000000180025095e-35 0.99989803999003002 0.99996710188014903 1.0000000180025095e-35 0.99999974705382688 0.99999625705163087 1.0000000180025095e-35 1.0000000180025095e-35 -0.90431655474823691 0.99990377308903888 -1.3939622511797176 0.99984905969264803 0.75499751684181216 0.99987507688177935 0.99999746491708463 1.0000000180025095e-35 1.0000000180025095e-35 0.99999746491708463 1.0000000180025095e-35 0.99999974705382688 0.99996710188014903 9.8348467264149324 1.2085285681502704 0.99999746491708463 0.9999974586354391 0.99999625705163087
decision_type=2 2 2 2 2 2 2 2 2 2 2 2 2 2 2 2 2 2 2 2 2 2 2 2 2 2 2 2 2 2
left_child=7 2 3 4 5 11 -3 -1 -9 12 -7 -2 16 14 -14 -12 -6 21 -19 -10 -21 -16 23 26 -25 -24 -23 -13 29 -27
right_child=1 6 -4 -5 9 10 -8 8 19 -11 15 27 13 -15 17 -17 -18 18 -20 20 -22 22 25 24 -26 28 -28 -29 -30 -31
leaf_value=-0.11840641975355488 -0.11830382131090469 0.16023149273228321 -0.11832207646436566 -0.11831323582647252 -0.11840769176116535 -0.1183687379450412 -0.11838719891692472 0.16023149273228321 -0.11839933200764921 -0.11840769176116535 0.16023149273228321 0.15712616593333428 -0.081602052486691598 -0.11849800484216684 0.16244360330809005 -0.11734350535215793 0.16023149273228321 0.16023149273228321 -0.11829247239374663 -0.11839284745644268 0.16023149273228321 -0.18462252537840762 -0.17488799514924638 0.16415348881092581 -0.17089928684201094 0.1565358674336865 0.1573236778098773 -0.11841190806261309 -0.19388660217752302 -0.21878939445735562
leaf_weight=145317.10928535461 916.07681539654732 1467.4224878847599 5487.3782694190741 3838.0268549323082 897.7772461771965 7051.4657901376486 13108.831514507532 8734.3895517885685 43998.332938432693 1054.1464623510838 1458.5076909959316 14659.960612341762 474.21595594286919 404.32767356932163 66825.095522075891 336.989084020257 331.48968431353569 1429.4173011481762 805.74665598571301 6196.3826421350241 1440.443497300148 246.2700662240386 325.38448368012905 1449.8952376842499 2568.9892957657576 63384.507719904184 7479.2209722101688 147.7272280305624 71.37186886370182 55.52998274564743
leaf_count=1106816 6976 6255 41784 29222 6838 53702 99838 37231 335108 8029 6217 63037 3204 3070 282468 2564 1413 6093 6135 47193 6140 1144 1608 6090 12537 268777 31406 1125 347 254
internal_value=0 0.105008 0.120679 0.128122 0.133609 0.0625573 -0.0903381 -0.104621 -0.0714375 0.14542 -0.0723997 0.138491 0.147316 0.148926 0.149671 0.108135 -0.0432686 0.150429 0.0598273 -0.110626 -0.0658393 0.151851 0.142485 0.0792003 -0.0500221 0.154128 0.146423 0.154377 0.155814 0.156207
internal_weight=0 196276 181700 176212 172374 24570.7 14576.3 205687 60369.5 147803 8846.96 15723.8 146749 145520 145116 1795.5 1229.27 144641 2235.16 51635.2 7636.83 142406 75581.2 11744.4 4018.88 63836.8 7725.49 14807.7 63511.4 63440
internal_count=2482621 950133 844040 802256 773034 133621 106093 1532488 425672 639413 62483 71138 631384 623133 620063 8781 8251 616859 12228 388441 53333 604631 322163 51177 18627 270986 32550 64162 269378 269031
is_linear=0
shrinkage=0.1


Tree=7
num_leaves=31
num_cat=0
split_feature=52 8 26 11 57 17 27 53 52 27 27 1 58 0 28 8 7 5 17 33 30 52 66 2 35 0 4 8 31 66
split_gain=384380 51256.4 27596.4 20305.7 11975.5 9613 20578.5 9278.98 8996.28 8541.73 47953.9 3770.95 2457.36 2156.92 1819.33 1640.04 1632.04 7940.96 1609.34 5429.51 9537.17 8934.31 3663.06 2434.99 2049.93 1007.6 739.682 668.589 657.603 634.409
threshold=1.0000000180025095e-35 0.99999625705163087 0.99990377308903888 0.9999597111130808 0.99999625705163087 1.0000000180025095e-35 1.0000000180025095e-35 0.99999974705382688 0.99996710188014903 1.0000000180025095e-35 0.99999974705382688 -0.90431655474823691 0.99990377308903888 -1.3939622511797176 0.99999625705163087 0.75499751684181216 1.0000000180025095e-35 1.0000000180025095e-35 0.99999746491708463 1.0000000180025095e-35 0.99999974705382688 0.99996710188014903 9.8348467264149324 1.2085285681502704 0.99987507688177935 -0.64052949907314305 0.9999974586354391 0.98403510411308226 0.99999625705163087 15.982963506896576
decision_type=2 2 2 2 2 2 2 2 2 2 2 2 2 2 2 2 2 2 2 2 2 2 2 2 2 2 2 2 2 2
left_child=9 2 3 4 5 6 -2 14 -3 -1 -11 15 13 27 25 -7 -12 -18 -15 20 23 -22 -21 -20 26 -8 28 -13 -24 -25
right_child=1 8 -4 -5 -6 11 7 -9 -10 10 16 12 -14 18 -16 -17 17 -19 19 22 21 -23 24 29 -26 -27 -28 -29 -30 -31
leaf_value=-0.11635079396099042 -0.11631460181796699 0.15131401643460518 -0.11625608711500607 -0.11624912144321371 -0.11649498008455639 -0.11635217212343973 -0.11723006771459098 -0.11636853619317729 -0.1163298066561866 0.15131401643460518 -0.11634307535217044 -0.11914941817055742 -0.11643110861282009 0.15304697053949878 -0.11684296329208702 0.15131401643460518 -0.11633603145160654 0.15131401643460518 -0.16885091410233855 -0.15244417309461267 0.15444142210959028 -0.15618421011215022 0.1472624450115311 0.14996567174503339 -0.11602718868893197 0.14789726002795522 -0.17967495730766905 0.27878401174087297 -0.19770403570671863 -0.16399268457356345
leaf_weight=133691.63366889954 4761.4532480165362 1401.8611302226782 5048.8724208623171 3531.2736545428634 2009.9364313110709 825.95354418456554 144.68448580801487 1536.4750358387828 12060.322599470615 8344.1553540080786 40478.680624306202 403.4472366347909 372.0105110257864 65331.043081194162 269.02642207592726 316.67942078411579 5700.7341822758317 1376.0875043272972 252.41050069779158 416.0209456756711 1390.011401027441 2773.4932855218649 60771.986189961433 7141.9458291977644 298.71818822622299 15462.362658366561 69.413674220442772 47.157069519162178 55.310204342007637 64.946694515645504
leaf_count=1106816 39412 6255 41784 29222 16561 6838 1163 12658 99838 37231 335108 2999 3070 288561 2191 1413 47193 6140 1260 2468 6090 15175 268777 31165 2472 69665 347 205 254 290
internal_value=0 0.099503 0.114105 0.121018 0.126104 0.129101 0.0679093 0.118285 -0.0884592 -0.102626 -0.0698002 0.138756 0.14024 0.140926 0.140995 -0.0421688 -0.108597 -0.0642915 0.141637 0.131458 0.0687679 -0.05248 0.143284 0.136444 0.145295 0.145439 0.146576 -0.0775045 0.146949 0.147136
internal_weight=0 186757 173295 168246 164714 162705 22174 17412.5 13462.2 189591 55899.7 140531 139388 139016 15876.1 1142.63 47555.5 7076.82 138565 73234.3 11622.8 4163.5 61611.4 7459.3 61195.4 15607 60896.7 450.604 60827.3 7206.89
internal_count=2482621 950133 844040 802256 773034 756473 125089 85677 106093 1532488 425672 631384 623133 620063 73019 8251 388441 53333 616859 328298 53980 21265 274318 32715 271850 70828 269378 3204 269031 31455
is_linear=0
shrinkage=0.1


Tree=8
num_leaves=31
num_cat=0
split_feature=52 8 26 11 57 17 27 53 52 27 27 1 58 0 28 7 5 8 17 28 1 1 35 4 2 0 31 0 33 66
split_gain=336505 44094.7 23763.4 17457.9 10285.5 8045.41 17832.7 7963.96 7935.25 7745.79 42165.7 3194.46 2103.41 1846.31 1556.1 1480.03 6984.32 1438.7 1425.17 4707.37 6559.81 6913.9 2785.33 1043.2 1007.54 861.108 855.611 807.165 667.855 4190.08
threshold=1.0000000180025095e-35 0.99999625705163087 0.99990377308903888 0.9999597111130808 0.99999625705163087 1.0000000180025095e-35 1.0000000180025095e-35 0.99999974705382688 0.99996710188014903 1.0000000180025095e-35 0.99999974705382688 -0.90431655474823691 0.99990377308903888 -1.3939622511797176 0.99999625705163087 1.0000000180025095e-35 1.0000000180025095e-35 0.75499751684181216 0.99999746491708463 1.0000000180025095e-35 0.75583139777472452 -0.25494142630878841 0.99987507688177935 0.9999974586354391 -0.18735996502769256 -0.64052949907314305 0.99999625705163087 1.9146565551071886 1.0000000180025095e-35 12.999999747053829
decision_type=2 2 2 2 2 2 2 2 2 2 2 2 2 2 2 2 2 2 2 2 2 2 2 2 2 2 2 2 2 2
left_child=9 2 3 4 5 6 -2 14 -3 -1 -11 17 13 -13 25 -12 -17 -7 -15 20 21 -20 23 26 -23 -8 27 28 29 -21
right_child=1 8 -4 -5 -6 11 7 -9 -10 10 15 12 -14 18 -16 16 -18 -19 19 22 -22 24 -24 -25 -26 -27 -28 -29 -30 -31
leaf_value=-0.11455457348806018 -0.11451482931414954 0.14410838351445918 -0.11444806788668856 -0.11444334200183792 -0.11468210351699876 -0.11455608918458471 -0.11532943868701749 -0.11454556901113461 -0.11453158231413232 0.14410838351445918 -0.11454615729782586 -0.075130409347210922 -0.1146253348729832 0.14552136480313227 -0.11498885342954016 -0.11453845573649386 0.14410838351445918 0.14410838351445918 -0.15473279618213343 0.12936513699855343 -0.14970412871833913 -0.15479124031914648 -0.114055837807507 -0.17700118559061734 0.14229100816702095 0.14030472178604497 -0.17399154980841655 -0.19011205406885703 0.14109776760724796 -0.16690780399751282
leaf_weight=122768.34086990356 4372.5671409666538 1328.5256760567427 4636.8642364442348 3243.0502528771758 1845.9346348494291 758.46793426573277 132.96229072660208 1411.246844150126 11075.145382627845 7907.6481926888227 37171.619011133909 421.5110001116991 341.63883600383997 62009.096859514713 247.14809263497591 5235.0236512720585 1304.1003438830376 300.1129944473505 958.93503842502832 7093.6876687556505 1340.5306941270828 116.60858116298914 449.5839366465807 106.46122466772795 5434.4656795561314 14708.062986433506 88.736268758773804 75.455554701387882 53497.678990893066 511.79154795408249
leaf_count=1106816 39412 6255 41784 29222 16561 6838 1163 12658 99838 37231 335108 3204 3070 288561 2191 47193 6140 1413 5469 32794 7442 658 4114 548 24971 69665 431 376 249059 2436
internal_value=0 0.0949714 0.108713 0.115202 0.119969 0.122775 0.0650384 0.112622 -0.0868293 -0.100889 -0.0683862 0.131801 0.133184 0.133825 0.13387 -0.106828 -0.0629564 -0.0412234 0.134494 0.12468 0.0517371 0.0932175 0.133942 0.135759 0.13605 0.138014 0.136302 0.136752 0.137156 0.109428
internal_weight=0 176506 164103 159466 156223 154377 20872 16499.4 12403.7 174387 51618.4 133505 132446 132105 15088.2 43710.7 6539.12 1058.58 131683 69673.9 7850.54 6510.01 61823.4 61373.8 5551.07 14841 61267.4 61178.6 61103.2 7605.48
internal_count=2482621 950133 844040 802256 773034 756473 125089 85677 106093 1532488 425672 631384 623133 620063 73019 388441 53333 8251 616859 328298 38540 31098 289758 285644 25629 70828 285096 284665 284289 35230
is_linear=0
shrinkage=0.1


Tree=9
num_leaves=31
num_cat=0
split_feature=52 8 26 11 57 52 27 27 20 58 27 37 53 17 5 27 33 52 66 29 7 5 38 4 60 36 52 24 1 17
split_gain=295789 38172.8 20592.4 15108.1 8893.32 7024.31 7018.52 37224.2 6827.77 5661.49 4468.82 16113.9 7669.77 5347.13 3021.62 1762.33 5235.35 5454.3 3279.72 1560.65 1341.11 6167.28 602.586 508.41 482.548 411.95 360.715 2569.96 1393.44 782.871
threshold=1.0000000180025095e-35 0.99999625705163087 0.99990377308903888 0.9999597111130808 0.99999625705163087 0.99996710188014903 1.0000000180025095e-35 0.99999974705382688 0.99994748169629999 0.99990377308903888 1.0000000180025095e-35 0.99999974705382688 0.99999974705382688 1.0000000180025095e-35 1.0000000180025095e-35 0.99999974705382688 1.0000000180025095e-35 0.99996710188014903 10.000011597264505 0.9999974586354391 1.0000000180025095e-35 1.0000000180025095e-35 0.99996502345453642 0.9999974586354391 0.99999746491708463 0.99984905969264803 0.99996710188014903 1.0000000180025095e-35 -0.26043885481581613 1.0000000180025095e-35
decision_type=2 2 2 2 2 2 2 2 2 2 2 2 2 2 2 2 2 2 2 2 2 2 2 2 2 2 2 2 2 2
left_child=6 2 3 4 8 -3 -1 -8 9 10 11 12 13 -2 -15 -12 17 -17 -18 24 -9 -22 23 25 -16 26 -20 -28 -29 -30
right_child=1 5 -4 -5 -6 -7 7 20 -10 -11 15 -13 -14 14 19 16 18 -19 22 -21 21 -23 -24 -25 -26 -27 27 28 29 -31
leaf_value=-0.11297891486423789 -0.11298506762136572 0.1381887706174609 -0.11285906701918438 -0.1128569583879972 -0.11309210498933293 -0.1129536780437197 0.1381887706174609 -0.11296969626222884 -0.1132630347839616 -0.11343285016950777 0.13938874358159437 -0.1326289460412253 -0.14657367048752476 -0.13557483108312668 0.13437721383979359 0.14094237993398073 -0.1385936357807826 -0.12938501275613543 0.13901173809296444 -0.17134010473071493 -0.11296127230139481 0.1381887706174609 -0.11759161458714361 -0.12454356912978658 -0.18033546502076375 -0.14395796462188754 -0.1783785721504893 -0.17285655589955073 -0.1131883681052873 0.13179557107750287
leaf_weight=112554.99077129364 950.25882415473461 1250.8852811157703 4251.6442385390401 2973.5611494481564 1692.5461704134941 10154.000530019403 7445.5171704590321 34079.497539877892 1271.4130452424288 1036.0234305113554 76256.316182345152 2978.9902412816882 1115.8859155327082 428.24663854390383 28352.997594289482 1309.0923547744751 466.72715461999178 1736.3679276332259 18606.750770121813 168.56752749532461 4799.5815674588084 1227.887390255928 99.103159710764885 78.623434670269489 48.804358832538128 54.750490121543407 288.62586072832346 155.6226658821106 132.14470331370831 10119.070629134774
leaf_count=1106816 9342 6255 41784 29222 16561 99838 37231 335108 12297 10029 376320 24603 8259 3267 138692 6352 3717 13414 92177 942 47193 6140 847 649 250 431 2097 1205 1290 50293
internal_value=0 0.0911437 0.10417 0.110309 0.114812 -0.0854084 -0.0993701 -0.0671584 0.117461 0.119492 0.121176 0.0895386 0.110844 0.120435 0.128084 0.13103 0.111741 -0.0131847 0.124422 0.132036 -0.105279 -0.0617982 0.128579 0.129408 0.133836 0.130088 0.1306 0.115966 0.124129 0.128638
internal_weight=0 165977 154572 150320 147347 11404.9 160107 47552.5 145654 144383 143347 34043.8 31064.8 29948.9 28998.6 109303 33046.9 3045.46 30001.4 28570.4 40107 6027.47 29534.7 29435.6 28401.8 29357 29302.2 10695.5 10406.8 10251.2
internal_count=2482621 950133 844040 802256 773034 106093 1532488 425672 756473 744176 734147 185355 160752 152493 143151 548792 172472 19766 152706 139884 388441 53333 148989 148142 138942 147493 147062 54885 52788 51583
is_linear=0
shrinkage=0.1


Tree=10
num_leaves=31
num_cat=0
split_feature=52 8 26 11 57 27 27 52 20 58 27 37 53 17 5 27 33 52 66 29 7 5 38 4 60 52 24 1 17 66
split_gain=261038 33264.5 17961.3 13163.4 7743.11 6355.97 32969.4 6236.08 5941.85 4925.19 3937.34 14026.6 6654.25 4627.08 2615.82 1539.18 4524.95 4780.42 2853.86 1346.66 1214.55 5463.48 523.529 441.872 415.627 370.831 2318.45 1282.16 736.437 534.599
threshold=1.0000000180025095e-35 0.99999625705163087 0.99990377308903888 0.9999597111130808 0.99999625705163087 1.0000000180025095e-35 0.99999974705382688 0.99996710188014903 0.99994748169629999 0.99990377308903888 1.0000000180025095e-35 0.99999974705382688 0.99999974705382688 1.0000000180025095e-35 1.0000000180025095e-35 0.99999974705382688 1.0000000180025095e-35 0.99996710188014903 10.000011597264505 0.9999974586354391 1.0000000180025095e-35 1.0000000180025095e-35 0.99996502345453642 0.9999974586354391 0.99999746491708463 0.99996710188014903 1.0000000180025095e-35 -0.26043885481581613 1.0000000180025095e-35 12.000053381812998
decision_type=2 2 2 2 2 2 2 2 2 2 2 2 2 2 2 2 2 2 2 2 2 2 2 2 2 2 2 2 2 2
left_child=5 2 3 4 8 -1 -7 -3 9 10 11 12 13 -2 -15 -12 17 -17 -18 24 -8 -22 23 25 -16 -20 -27 -28 -29 -30
right_child=1 7 -4 -5 -6 6 20 -9 -10 -11 15 -13 -14 14 19 16 18 -19 22 -21 21 -23 -24 -25 -26 26 27 28 29 -31
leaf_value=-0.11159200961680481 -0.1115977958246849 0.13325990684725653 -0.11145717039246027 -0.11145809061881549 -0.11169281280690667 0.13325990684725653 -0.11158190681043197 -0.11156426528631014 -0.11180177028847334 -0.11199849346516294 0.13426664063934762 -0.13020847218068193 -0.14238229200076136 -0.13211172896195503 0.12867385584956001 0.13556034892219568 -0.13550255249276047 -0.12650382261275162 0.13395352605891514 -0.16236069913861786 -0.11157266206851955 0.13325990684725653 -0.11570139606783506 -0.12205837942407627 -0.1694478203406424 -0.17041086556461843 -0.16586060736222114 -0.11176724934970231 -0.22767638915791322 0.12748165441717715
leaf_weight=103044.72235012054 869.96944514662027 1171.5189765393734 3892.9507656767964 2722.6243991777301 1549.6802762448788 6973.1131919324398 31200.236418485641 9296.267397403717 1164.6864971220493 948.82180763036013 71493.846724316478 2743.0384369269013 1037.8866972327232 397.12762037664652 26732.519612446427 1229.0756001472473 431.45168227702379 1605.0711732804775 17439.159238524735 160.51702686399221 4394.1157385632396 1149.9802583456039 91.061835646629333 72.515575356781483 46.846542902290821 286.72392360121012 156.52171644568443 132.1825558245182 42.572172820568085 9505.9485704004765
leaf_count=1106816 9342 6255 41784 29222 16561 37231 335108 99838 12297 10029 376320 24603 8259 3267 138692 6352 3717 13414 92178 942 47193 6140 847 649 250 2226 1309 1411 261 50108
internal_value=0 0.0879837 0.100433 0.106289 0.11058 -0.0980371 -0.0660872 -0.0841644 0.113102 0.115036 0.116638 0.08601 0.10629 0.11544 0.122666 0.126198 0.107585 -0.0128553 0.119707 0.126421 -0.103918 -0.0607884 0.123679 0.124467 0.128152 0.125116 0.109892 0.118062 0.122653 0.125898
internal_weight=0 155221 144753 140860 138137 146762 43717.4 10467.8 136588 135423 134474 31987.9 29244.9 28207 27337 102486 30992.3 2834.15 28158.1 26939.9 36744.3 5544.1 27726.7 27635.6 26779.4 27563.1 10123.9 9837.23 9680.7 9548.52
internal_count=2482621 950133 844040 802256 773034 1532488 425672 106093 756473 744176 734147 185355 160752 152493 143151 548792 172472 19766 152706 139884 388441 53333 148989 148142 138942 147493 55315 53089 51780 50369
is_linear=0
shrinkage=0.1


Tree=11
num_leaves=31
num_cat=0
split_feature=52 8 26 11 57 27 27 52 20 58 27 37 53 17 5 27 33 52 66 29 7 5 38 52 24 1 35 0 66 60
split_gain=231050 29119.3 15737.1 11522.5 6773.83 5753.65 29280.4 5549.7 5195.84 4305.58 3504.82 12255.2 5795.36 4022.31 2274.12 1356.39 3932.36 4205.28 2494.67 1167.36 1099.48 4853.06 457.12 391.034 2172.87 1275.45 662.413 516.294 383.909 359.821
threshold=1.0000000180025095e-35 0.99999625705163087 0.99990377308903888 0.9999597111130808 0.99999625705163087 1.0000000180025095e-35 0.99999974705382688 0.99996710188014903 0.99994748169629999 0.99990377308903888 1.0000000180025095e-35 0.99999974705382688 0.99999974705382688 1.0000000180025095e-35 1.0000000180025095e-35 0.99999974705382688 1.0000000180025095e-35 0.99996710188014903 10.000011597264505 0.9999974586354391 1.0000000180025095e-35 1.0000000180025095e-35 0.99996502345453642 0.99996710188014903 1.0000000180025095e-35 -0.26043885481581613 0.99987507688177935 0.88004426391984092 12.000053381812998 0.99999746491708463
decision_type=2 2 2 2 2 2 2 2 2 2 2 2 2 2 2 2 2 2 2 2 2 2 2 2 2 2 2 2 2 2
left_child=5 2 3 4 8 -1 -7 -3 9 10 11 12 13 -2 -15 -12 17 -17 -18 29 -8 -22 23 -20 -25 -26 27 28 -27 -16
right_child=1 7 -4 -5 -6 6 20 -9 -10 -11 15 -13 -14 14 19 16 18 -19 22 -21 21 -23 -24 24 25 26 -28 -29 -30 -31
leaf_value=-0.11036761304052363 -0.1103731165687184 0.12911031453943547 -0.11021597935013588 -0.11022035214302742 -0.11045764145854822 0.12911031453943547 -0.11035650743862024 -0.11033707026496836 -0.11050531263853591 -0.11073227595072509 0.12996368970943048 -0.12801476578891202 -0.13858033353295693 -0.12900310395541098 0.1237126981772254 0.13105246164231135 -0.13267449482628005 -0.12392868964202806 0.12969782794053819 -0.15472811192475949 -0.11034636523872661 0.12911031453943547 -0.11403595838934372 -0.15924298321262001 -0.15394366679795227 -0.2056556640305599 -0.11302130507178086 -0.23001959966120006 0.12411155187599782 -0.16045117483483617
leaf_weight=94220.036699295044 795.46729668974876 1092.3263161629438 3560.1218701824546 2489.7784373164177 1417.0842665955424 6501.7427781075239 28528.540041983128 8500.3681405857205 1065.5820090547204 867.8430594727397 66720.316631421447 2522.3590287491679 963.55772794783115 367.54930240660906 25108.112400561571 1148.368462562561 398.28886163234711 1480.954953789711 16270.346582315862 152.03034980595112 4017.8796854093671 1072.2435781359673 83.537666849792004 303.11853091418743 175.79806799441576 35.443988136947155 122.4374673217535 41.668913349509239 8884.9528988450766 44.639595434069633
leaf_count=1106816 9342 6255 41784 29222 16561 37231 335108 99838 12297 10029 376320 24603 8259 3267 138692 6352 3717 13414 92178 942 47193 6140 847 2556 1613 247 1204 282 50062 250
internal_value=0 0.0852801 0.0972409 0.102859 0.106973 -0.0968631 -0.0651486 -0.083071 0.109388 0.111241 0.112774 0.0829234 0.10232 0.111089 0.117952 0.122121 0.104043 -0.0125646 0.115693 0.121539 -0.102718 -0.0599044 0.11951 0.120265 0.104218 0.112842 0.118005 0.121161 0.122801 0.123208
internal_weight=0 144612 135019 131459 128969 134340 40120.4 9592.69 127552 126487 125619 29953.7 27431.4 26467.8 25672.3 95665.2 28944.9 2629.32 26315.6 25304.8 33618.7 5090.12 25917.3 25833.8 9563.42 9260.3 9084.5 8962.07 8920.4 25152.8
internal_count=2482621 950133 844040 802256 773034 1532488 425672 106093 756473 744176 734147 185355 160752 152493 143151 548792 172472 19766 152706 139884 388441 53333 148989 148142 55964 53408 51795 50591 50309 138942
is_linear=0
shrinkage=0.1


Tree=12
num_leaves=31
num_cat=0
split_feature=52 8 26 11 57 27 27 52 20 58 27 37 53 17 5 27 33 52 66 29 7 5 52 24 1 17 0 1 52 66
split_gain=205018 25587.3 13840 10125.3 5949.32 5206.94 26063.8 4948.93 4561.64 3779.14 3149.16 10739.3 5062.94 3509.28 1983.73 1203.19 3433.56 3710.95 2189.22 1015.69 995.022 4320.64 416.892 1974.12 1219.05 665.23 484.746 390.824 1919.13 341.774
threshold=1.0000000180025095e-35 0.99999625705163087 0.99990377308903888 0.9999597111130808 0.99999625705163087 1.0000000180025095e-35 0.99999974705382688 0.99996710188014903 0.99994748169629999 0.99990377308903888 1.0000000180025095e-35 0.99999974705382688 0.99999974705382688 1.0000000180025095e-35 1.0000000180025095e-35 0.99999974705382688 1.0000000180025095e-35 0.99996710188014903 10.000011597264505 0.9999974586354391 1.0000000180025095e-35 1.0000000180025095e-35 0.99996710188014903 1.0000000180025095e-35 -0.26043885481581613 1.0000000180025095e-35 0.88004426391984092 -0.26043885481581613 0.99996710188014903 12.000053381812998
decision_type=2 2 2 2 2 2 2 2 2 2 2 2 2 2 2 2 2 2 2 2 2 2 2 2 2 2 2 2 2 2
left_child=5 2 3 4 8 -1 -7 -3 9 10 11 12 13 -2 -15 -12 17 -17 -18 27 -8 -22 -20 -24 -25 -26 29 28 -16 -27
right_child=1 7 -4 -5 -6 6 20 -9 -10 -11 15 -13 -14 14 19 16 18 -19 22 -21 21 -23 23 24 25 26 -28 -29 -30 -31
leaf_value=-0.10928382581557017 -0.10928912429111202 0.12558439055612955 -0.10911345477892165 -0.109121741900294 -0.10936446822576046 0.12558439055612955 -0.10927162004094618 -0.10925016367155092 -0.10935059748738865 -0.10961150661013684 0.12631403262088678 -0.12600917134266981 -0.13512397223757833 -0.12620693694027013 0.12630079324603735 0.12723851462153676 -0.13007523438106469 -0.12161852526110584 0.12608640243140989 -0.1481813646557458 -0.1092604569292146 0.12558439055612955 -0.15130411648825304 -0.14509109781149823 -0.11034481549119364 -0.19034364943386553 -0.19833366223221144 0.12192272175945727 -0.18010182677923137 0.11985841671594342
leaf_weight=86055.963653564453 726.54179392009974 1014.6846163272858 3252.2140640243888 2274.3640677928925 1294.3908408656716 6039.6039888858795 26056.84575715661 7764.0507374703884 973.83862803131342 792.87453193962574 62024.609336704016 2316.7948273681104 893.01836200430989 339.56185505539179 1022.8359620571136 1068.6111221313477 367.21971310675144 1364.1704400554299 15121.757052436471 143.32250043749809 3669.808717019856 996.0293436050415 304.64478493109345 186.72043046355247 131.06448099762201 35.670639030635357 48.56055361032486 22274.719448041171 255.47591170296073 8307.4062345400453
leaf_count=1106816 9342 6255 41784 29222 16561 37231 335108 99838 12297 10029 376320 24603 8259 3267 6226 6352 3717 13414 92178 942 47193 6140 2791 1889 1579 238 312 131442 1274 50002
internal_value=0 0.0829435 0.0944869 0.0999024 0.103864 -0.0958261 -0.0643233 -0.082107 0.10619 0.107972 0.109448 0.0801818 0.0988017 0.107238 0.113783 0.11865 0.101003 -0.0123069 0.112252 0.117222 -0.101656 -0.0591275 0.115939 0.0989169 0.107669 0.113207 0.116699 0.118837 0.065065 0.118532
internal_weight=0 134299 125520 122268 119994 122818 36762.3 8778.74 118699 117726 116933 27972.3 25655.5 24762.5 24035.9 88960.4 26935.8 2432.78 24503 23696.4 30722.7 4665.84 24135.8 9014.07 8709.42 8522.7 8391.64 23553 1278.31 8343.08
internal_count=2482621 950133 844040 802256 773034 1532488 425672 106093 756473 744176 734147 185355 160752 152493 143151 548792 172472 19766 152706 139884 388441 53333 148989 56811 54020 52131 50552 138942 7500 50240
is_linear=0
shrinkage=0.1


Tree=13
num_leaves=31
num_cat=0
split_feature=52 8 26 11 57 27 27 52 20 58 27 37 53 17 5 27 33 52 66 7 5 29 52 24 1 35 0 0 2 53
split_gain=182336 22563.5 12214 8929.51 5244.38 4711.24 23245.8 4420.84 4019.73 3329.55 2825.18 9449.14 4442.39 3077.3 1738.83 1075.63 3008.45 3283.55 1927 900.305 3854.06 888.168 387.036 1729.21 1068.74 595.085 413.25 362.868 378.364 334.824
threshold=1.0000000180025095e-35 0.99999625705163087 0.99990377308903888 0.9999597111130808 0.99999625705163087 1.0000000180025095e-35 0.99999974705382688 0.99996710188014903 0.99994748169629999 0.99990377308903888 1.0000000180025095e-35 0.99999974705382688 0.99999974705382688 1.0000000180025095e-35 1.0000000180025095e-35 0.99999974705382688 1.0000000180025095e-35 0.99996710188014903 10.000011597264505 1.0000000180025095e-35 1.0000000180025095e-35 0.9999974586354391 0.99996710188014903 1.0000000180025095e-35 -0.26043885481581613 0.99987507688177935 0.88004426391984092 -1.3857804056531116 4.2006903896733556 1.0000000180025095e-35
decision_type=2 2 2 2 2 2 2 2 2 2 2 2 2 2 2 2 2 2 2 2 2 2 2 2 2 2 2 2 2 2
left_child=5 2 3 4 8 -1 -7 -3 9 10 11 12 13 -2 -15 -12 17 -17 -18 -8 -21 27 -20 -24 -25 26 29 28 -16 -26
right_child=1 7 -4 -5 -6 6 19 -9 -10 -11 15 -13 -14 14 21 16 18 -19 22 20 -22 -23 23 24 25 -27 -28 -29 -30 -31
leaf_value=-0.10832226392810124 -0.1083274260298635 0.12256496012297813 -0.10813103434781997 -0.10814372628129404 -0.10839470501699872 0.12256496012297813 -0.10830881850835661 -0.10828514569244861 -0.10831818358196575 -0.10861713844290768 0.12319339490295811 -0.12416130568194568 -0.1319774981288242 -0.12368815462359001 -0.16631305477721917 0.12398429405191697 -0.12767859020563174 -0.11953979890033389 0.12299713273935919 -0.10829654536417961 0.12256496012297813 -0.14252028059466657 -0.14700574156005017 -0.14180099473966828 -0.219947980630741 -0.11155545733800326 -0.18886718392287238 0.11622777791677458 0.1659895780686135 0.11609112414161193
leaf_weight=78522.477991104126 662.93958099931479 939.57003146409988 2968.0928549021482 2075.5885262861848 1181.1550723314285 5592.5070889592171 23776.065397053957 7084.6058853715658 889.13473385572433 723.6540814936161 57470.069343075156 2125.9303637444973 826.31162603572011 313.18375854194164 91.457298845052719 990.98036932945251 338.1924248598516 1254.7162838727236 14008.567625045776 3348.6226022690535 922.29576230049133 134.56622416898608 283.30176830664277 172.67270288616419 29.764642640948296 119.75786436721683 45.07210511341691 21808.934083513916 54.792041957378387 7752.7592661567032
leaf_count=1106816 9342 6255 41784 29222 16561 37231 335108 99838 12297 10029 376320 24603 8259 3267 511 6352 3717 13414 92178 47193 6140 942 2791 1889 210 1344 340 138169 262 50237
internal_value=0 0.0809333 0.0921215 0.097365 0.101198 -0.0949078 -0.0635954 -0.0812544 0.103447 0.105171 0.106597 0.0778667 0.0958432 0.104005 0.110288 0.115661 0.098344 -0.0120776 0.109244 -0.100715 -0.0584425 0.113605 0.112819 0.095852 0.104325 0.109673 0.113057 0.115175 -0.0418165 0.114806
internal_weight=0 124346 116322 113354 111278 112162 33639.5 8024.18 110097 109208 108484 26018.1 23892.2 23065.9 22402.9 82465.9 24995.8 2245.7 22750.1 28047 4270.92 22089.7 22411.9 8403.33 8120.03 7947.35 7827.6 21955.2 146.249 7782.52
internal_count=2482621 950133 844040 802256 773034 1532488 425672 106093 756473 744176 734147 185355 160752 152493 143151 548792 172472 19766 152706 388441 53333 139884 148989 56811 54020 52131 50787 138942 773 50447
is_linear=0
shrinkage=0.1


Tree=14
num_leaves=31
num_cat=0
split_feature=52 8 26 11 57 27 27 52 27 37 17 53 5 27 33 52 66 7 5 29 52 34 33 24 37 1 1 17 66 1
split_gain=162428 19942.6 10803.5 7893.3 4633.96 4262.16 20767.2 3954.96 3555.64 9347.93 5371.69 3059.32 1819.52 1337.14 3307.9 3110.49 2004.02 814.489 3443.56 798.718 485.355 1807.66 3100.1 412.952 398.244 3062.25 2059.44 281.118 210.861 139.806
threshold=1.0000000180025095e-35 0.99999625705163087 0.99990377308903888 0.9999597111130808 0.99999625705163087 1.0000000180025095e-35 0.99999974705382688 0.99996710188014903 1.0000000180025095e-35 0.99999974705382688 1.0000000180025095e-35 0.99999974705382688 1.0000000180025095e-35 0.99999974705382688 1.0000000180025095e-35 0.99996710188014903 10.000011597264505 1.0000000180025095e-35 1.0000000180025095e-35 0.9999974586354391 0.99996710188014903 1.0000000180025095e-35 0.99999974705382688 1.0000000180025095e-35 1.0000000180025095e-35 0.75583139777472452 -0.26043885481581613 1.0000000180025095e-35 11.999934203760299 -0.26043885481581613
decision_type=2 2 2 2 2 2 2 2 2 2 2 2 2 2 2 2 2 2 2 2 2 2 2 2 2 2 2 2 2 2
left_child=5 2 3 4 8 -1 -7 -3 9 10 -2 12 -12 -10 15 -15 -16 -8 -19 24 -18 22 -22 -23 25 26 -14 -25 -28 -29
right_child=1 7 -4 -5 -6 6 17 -9 13 -11 11 -13 19 14 16 -17 20 18 -20 -21 21 23 -24 27 -26 -27 28 29 -30 -31
leaf_value=-0.10746737717563609 -0.10726894545909714 0.11996205342491904 -0.10725300829376533 -0.10727059666557043 -0.10753264342829771 0.11996205342491904 -0.10745255696066446 -0.10742641902992843 0.12050735033182136 -0.11962804247846462 -0.11885205892110867 -0.13987960909772462 -0.17284087302884765 0.12118768611306158 -0.12212939410933088 -0.11613238352798516 0.12033653615225202 -0.10743903014180106 0.11996205342491904 -0.13649994636754592 0.12071151079975595 -0.12917622338811377 -0.15619008474293938 -0.10848931208384419 0.1215647976710213 -0.20118942633331627 -0.19827716061250936 -0.12634767448029968 0.11932214992161955 0.11869728868946938
leaf_weight=71586.354878425598 1325.0063109211624 867.65029482543468 2706.5036159157753 1892.5751806348562 1076.8828614354134 5164.4265590161085 21676.137062549591 6459.037562251091 53101.138367339969 2392.8647280149162 353.38937005773187 517.97651600092649 252.67314395308495 916.29672908782959 384.10141453519464 1390.1889101490378 12941.222736701369 3052.9050349295139 851.69829100370407 130.62129589542747 891.18742020428181 69.582357045263052 740.0869620218873 55.397978629916906 13521.968699961901 338.63136649131775 20.973601579666138 23.370426725596189 6332.0181396827102 6203.2726268805563
leaf_count=1106816 21034 6255 41784 29222 16561 37231 335108 99838 376323 31465 4272 3917 1335 6352 4811 16796 92178 47193 6140 1015 6270 799 8008 812 92846 1674 117 263 43128 43058
internal_value=0 0.0791373 0.0900094 0.0951003 0.0988196 -0.0940927 -0.0629514 -0.0804983 0.101 0.0683994 0.0881387 0.100199 0.106135 0.111703 0.091906 -0.0218523 0.10422 -0.0998793 -0.0578368 0.109995 0.108375 0.0889831 -0.00491497 0.113099 0.111568 0.0921029 0.107138 0.115782 0.118274 0.117778
internal_weight=0 114905 107578 104871 102979 102332 30745.2 7326.69 101902 25186.1 22793.3 21468.3 20950.3 76715.8 23614.7 2306.49 21308.2 25580.7 3904.6 20596.9 20924.1 7982.9 1631.27 6351.62 20466.3 6944.3 6605.66 6282.04 6352.99 6226.64
internal_count=2482621 950133 844040 802256 773034 1532488 425672 106093 756473 200803 169338 148304 144387 555670 179347 23148 156199 388441 53333 140115 151388 59210 14278 44932 139100 46254 44580 44133 43245 43321
is_linear=0
shrinkage=0.1


Tree=15
num_leaves=31
num_cat=0
split_feature=52 8 26 11 57 27 27 52 27 37 17 53 5 27 33 52 66 7 5 29 52 34 33 37 1 1 24 17 28 66
split_gain=145026 17693.9 9591.21 7004.09 4110.64 3855.54 18579.7 3542.71 3172.07 8289.15 4755.29 2697.79 1608.44 1188.95 2924.5 2766.91 1776.27 736.782 3081.18 704.62 437.904 1593.55 2748.4 370.659 2621.89 1801.11 364.906 248.399 187.279 132.35
threshold=1.0000000180025095e-35 0.99999625705163087 0.99990377308903888 0.9999597111130808 0.99999625705163087 1.0000000180025095e-35 0.99999974705382688 0.99996710188014903 1.0000000180025095e-35 0.99999974705382688 1.0000000180025095e-35 0.99999974705382688 1.0000000180025095e-35 0.99999974705382688 1.0000000180025095e-35 0.99996710188014903 10.000011597264505 1.0000000180025095e-35 1.0000000180025095e-35 0.9999974586354391 0.99996710188014903 1.0000000180025095e-35 0.99999974705382688 1.0000000180025095e-35 0.75583139777472452 -0.26043885481581613 1.0000000180025095e-35 1.0000000180025095e-35 0.99999625705163087 11.999934203760299
decision_type=2 2 2 2 2 2 2 2 2 2 2 2 2 2 2 2 2 2 2 2 2 2 2 2 2 2 2 2 2 2
left_child=5 2 3 4 8 -1 -7 -3 9 10 -2 12 -12 -10 15 -15 -16 -8 -19 23 -18 22 -22 24 25 -14 -23 -28 29 -27
right_child=1 7 -4 -5 -6 6 17 -9 13 -11 11 -13 19 14 16 -17 20 18 -20 -21 21 26 -24 -25 -26 28 27 -29 -30 -31
leaf_value=-0.10670593503215725 -0.10652983169385777 0.11770542508029228 -0.10646591257418403 -0.10648893345746419 -0.10676490434063196 0.11770542508029228 -0.1066896136848271 -0.10666072853784146 0.11818059565824919 -0.11823445149394925 -0.11709959205616215 -0.13560143101391417 -0.16297607155527383 0.1187695760747205 -0.12039861316572431 -0.11459904938967713 0.11803174837050744 -0.10667469542478131 0.11770542508029228 -0.13237367198670677 0.11835643561153973 -0.12652526794184785 -0.15321411445711014 0.11910008087349958 -0.18194545306055548 -0.18690692099362671 -0.10762569325536867 0.11511104468023364 -0.20805120978310543 0.11727151077531067
leaf_weight=65212.596501350403 1206.8082379065454 799.35686051845551 2466.1258137896657 1724.4006299376488 981.05246476456523 4757.9304994344711 19746.467046946287 5884.1893515028059 48945.008751749992 2189.3754444979131 324.30045309662819 482.70458848774433 241.73357817903161 845.10742330551147 352.29081339761615 1273.86468815431 11926.547266572714 2781.1637598797679 784.66045141220093 121.68447364866734 821.59632141888142 64.212737374007702 682.00855637341738 12475.296123698354 337.05155081674457 14.33938232064247 50.507816810160875 5757.8997420966625 17.830756410956383 5845.242146089673
leaf_count=1106816 21034 6255 41784 29222 16561 37231 335108 99838 376323 31465 4272 3917 1335 6352 4811 16796 92178 47193 6140 1015 6270 799 8008 92846 1674 82 812 43321 101 43062
internal_value=0 0.0776599 0.0882761 0.0932436 0.0968707 -0.0933677 -0.0623803 -0.0798264 0.0989965 0.0669588 0.0862049 0.0979165 0.103734 0.109532 0.0900922 -0.0215249 0.102125 -0.099135 -0.0572998 0.107492 0.106187 0.0870344 -0.00482316 0.109034 0.0895835 0.10454 0.110553 0.113174 0.115542 0.116527
internal_weight=0 105831 99147 96680.9 94956.5 93282.8 28070.2 6683.55 93975.4 23256.4 21067 19860.2 19377.5 70719 21774 2118.97 19655.1 23312.3 3565.82 19053.2 19302.8 7376.23 1503.6 18931.5 6456.2 6119.15 5872.62 5808.41 5877.41 5859.58
internal_count=2482621 950133 844040 802256 773034 1532488 425672 106093 756473 200803 169338 148304 144387 555670 179347 23148 156199 388441 53333 140115 151388 59210 14278 139100 46254 44580 44932 44133 43245 43144
is_linear=0
shrinkage=0.1


Tree=16
num_leaves=31
num_cat=0
split_feature=52 8 26 11 57 27 27 52 27 37 17 53 5 27 33 52 66 7 5 29 52 34 33 1 37 1 1 24 28 17
split_gain=129669 15731.3 8532.18 6227.98 3654.17 3487.52 16643.5 3176.96 2833.56 7365.2 4219.99 2385.51 1425.44 1064.26 2589.79 2465.47 1576.94 666.447 2760.36 623.281 399.667 1404.83 2438.65 344.763 344.223 2263.25 1582.04 194.885 163.305 134.992
threshold=1.0000000180025095e-35 0.99999625705163087 0.99990377308903888 0.9999597111130808 0.99999625705163087 1.0000000180025095e-35 0.99999974705382688 0.99996710188014903 1.0000000180025095e-35 0.99999974705382688 1.0000000180025095e-35 0.99999974705382688 1.0000000180025095e-35 0.99999974705382688 1.0000000180025095e-35 0.99996710188014903 10.000011597264505 1.0000000180025095e-35 1.0000000180025095e-35 0.9999974586354391 0.99996710188014903 1.0000000180025095e-35 0.99999974705382688 -0.26043885481581613 1.0000000180025095e-35 0.75583139777472452 -0.26043885481581613 1.0000000180025095e-35 0.99999625705163087 1.0000000180025095e-35
decision_type=2 2 2 2 2 2 2 2 2 2 2 2 2 2 2 2 2 2 2 2 2 2 2 2 2 2 2 2 2 2
left_child=5 2 3 4 8 -1 -7 -3 9 10 -2 12 -12 -10 15 -15 -16 -8 -19 24 -18 22 -22 -23 25 26 -14 -25 -28 -29
right_child=1 7 -4 -5 -6 6 17 -9 13 -11 11 -13 19 14 16 -17 20 18 -20 -21 21 23 -24 27 -26 -27 28 29 -30 -31
leaf_value=-0.10602661835078514 -0.10587018533101192 0.11573937429157982 -0.10575821155412937 -0.10578723185671733 -0.1060800670516297 0.11573937429157982 -0.10600860414360702 -0.10597670024085602 0.11615537110081278 -0.11693197496880703 -0.11550984845899358 -0.13184395831200499 -0.15472365340086114 0.11666767832625652 -0.1187937050853891 -0.11320973208050152 0.11602517455243605 -0.10599215524437944 0.11573937429157982 -0.12871646506265497 0.11630752330701694 -0.11908801951922326 -0.15025818188063925 -0.12552100780666611 0.11695871898188595 -0.16638114052873865 0.11414778289148349 -0.10712686306035589 -0.19445032879275206 0.11361018819399345
leaf_weight=59365.541208744049 1098.4213441312313 734.94115378707647 2245.6130309924483 1570.1236473098397 893.13095876947045 4374.5154431089759 17976.258158490062 5356.8443798236549 45019.636892020702 2001.973815318197 297.27120857685804 448.57270134612918 229.78085308894515 777.75080525875092 322.85303910821676 1166.062753085047 10968.598356686532 2531.8780411630869 721.42904624342918 113.07143310084939 755.83200384676456 65.970752779394388 628.63338130712509 34.635671276599169 11484.122803807259 331.96942289173603 5406.8656608499587 27.850542269647121 17.202505379915237 5298.5647806376219
leaf_count=1106816 21034 6255 41784 29222 16561 37231 335108 99838 376323 31465 4272 3917 1335 6352 4811 16796 92178 47193 6140 1015 6270 970 8008 434 92846 1674 43144 470 101 43058
internal_value=0 0.0763579 0.0867499 0.0916094 0.0951561 -0.0927216 -0.0618728 -0.0792278 0.097234 0.0656953 0.0845149 0.0959245 0.101639 0.107621 0.0884555 -0.0212321 0.100233 -0.0984711 -0.0568226 0.10531 0.10421 0.0851848 -0.00472988 0.108123 0.106825 0.0873817 0.102282 0.110919 0.113169 0.112456
internal_weight=0 97296.3 91204.5 88958.9 87388.8 84969.6 25604.1 6091.79 86495.6 21429.3 19427.3 18328.9 17880.3 65066.4 20046.8 1943.81 18102.9 21229.6 3253.31 17583 17780.1 6811.49 1384.47 5427.02 17469.9 5985.82 5653.85 5361.05 5424.07 5326.42
internal_count=2482621 950133 844040 802256 773034 1532488 425672 106093 756473 200803 169338 148304 144387 555670 179347 23148 156199 388441 53333 140115 151388 59210 14278 44932 139100 46254 44580 43962 43245 43528
is_linear=0
shrinkage=0.1


Tree=17
num_leaves=31
num_cat=0
split_feature=52 8 26 11 57 27 27 52 27 37 17 53 5 27 33 52 66 7 5 29 52 34 33 37 1 1 1 24 66 35
split_gain=116084 14012.3 7603.75 5548.14 3254.53 3154.53 14925.4 2851.73 2539.71 6553.89 3751.58 2113.71 1265.53 954.007 2299.06 2200.18 1402.82 602.805 2475.63 552.42 364.315 1243.27 2165.42 321.584 1964.4 1393.2 305.743 172.669 160.853 131.732
threshold=1.0000000180025095e-35 0.99999625705163087 0.99990377308903888 0.9999597111130808 0.99999625705163087 1.0000000180025095e-35 0.99999974705382688 0.99996710188014903 1.0000000180025095e-35 0.99999974705382688 1.0000000180025095e-35 0.99999974705382688 1.0000000180025095e-35 0.99999974705382688 1.0000000180025095e-35 0.99996710188014903 10.000011597264505 1.0000000180025095e-35 1.0000000180025095e-35 0.9999974586354391 0.99996710188014903 1.0000000180025095e-35 0.99999974705382688 1.0000000180025095e-35 0.75583139777472452 -0.26043885481581613 -0.26043885481581613 1.0000000180025095e-35 11.999934203760299 0.99987507688177935
decision_type=2 2 2 2 2 2 2 2 2 2 2 2 2 2 2 2 2 2 2 2 2 2 2 2 2 2 2 2 2 2
left_child=5 2 3 4 8 -1 -7 -3 9 10 -2 12 -12 -10 15 -15 -16 -8 -19 23 -18 22 -22 24 25 -14 -23 -28 -27 -29
right_child=1 7 -4 -5 -6 6 17 -9 13 -11 11 -13 19 14 16 -17 20 18 -20 -21 21 26 -24 -25 -26 28 27 29 -30 -31
leaf_value=-0.10541967288869364 -0.10528064075211328 0.11401917781074816 -0.10511989373464865 -0.1051555156677912 -0.1054682860242841 0.11401917781074816 -0.10539980081816427 -0.10536454205293784 0.11438482554257666 -0.11570977935489042 -0.11406721507814604 -0.12853059638934908 -0.14774615526123705 0.11483231452894122 -0.117304252232491 -0.1119489986290102 0.11427058794453676 -0.10538164458743954 0.11401917781074816 -0.12545771120883772 0.11451700679587132 -0.11731670894041822 -0.147330703013278 0.11508962528355147 -0.15346173624668435 -0.17663071353304169 -0.12253686198118235 0.11148899550131806 0.11206946253637201 -0.11137924624723326
leaf_weight=54009.634552955627 999.17405706644058 674.51879762113094 2043.6239121519029 1428.8061272799969 812.58659979701042 4014.8696009963751 16354.745663166046 4873.7964066937566 41333.531935378909 1829.6231408156455 272.21010948717594 415.80815706774592 217.21794883534312 714.40667867660522 295.64988728240132 1066.3724935501814 10069.346240222454 2303.5324170514941 662.11757272481918 104.83176321908832 694.04766371101141 60.548456203192472 579.54181320406497 10551.329369522631 324.31460592523217 19.374123260378838 32.063967276364565 4883.133466783911 4981.6971407532692 26.666155379265547
leaf_count=1106816 21034 6255 41784 29222 16561 37231 335108 99838 376323 31465 4272 3917 1335 6352 4811 16796 92178 47193 6140 1015 6270 970 8008 92846 1674 117 434 43184 43128 344
internal_value=0 0.0752088 0.0854039 0.0901689 0.0936451 -0.092145 -0.0614208 -0.0786937 0.0956811 0.0645588 0.0829992 0.0941395 0.0997608 0.105949 0.0870229 -0.0209697 0.0985793 -0.0978781 -0.0563977 0.103354 0.102484 0.0835738 -0.00463575 0.104844 0.0853409 0.100182 0.106031 0.108768 0.110951 0.110279
internal_weight=0 89304.2 83755.9 81712.3 80283.5 77344.9 23335.3 5548.32 79470.9 19715.6 17886 16886.8 16471 59755.3 18421.8 1780.78 16641 19320.4 2965.65 16198.8 16345.3 6276 1273.59 16093.9 5542.6 5218.29 5002.41 4941.86 5001.07 4909.8
internal_count=2482621 950133 844040 802256 773034 1532488 425672 106093 756473 200803 169338 148304 144387 555670 179347 23148 156199 388441 53333 140115 151388 59210 14278 139100 46254 44580 44932 43962 43245 43528
is_linear=0
shrinkage=0.1


Tree=18
num_leaves=31
num_cat=0
split_feature=52 8 26 11 57 27 27 52 27 37 17 53 5 27 33 52 66 7 5 29 52 34 33 37 1 1 1 17 28 53
split_gain=104035 12500.9 6786.76 4950.34 2903.29 2853.31 13397.5 2561.98 2280.36 5840.27 3340.87 1876.56 1125.54 858.22 2044.19 1966.06 1249.72 545.229 2222.38 490.547 333.679 1101.7 1924.15 300.746 1713.11 1230.2 271.447 160.648 143.366 128.565
threshold=1.0000000180025095e-35 0.99999625705163087 0.99990377308903888 0.9999597111130808 0.99999625705163087 1.0000000180025095e-35 0.99999974705382688 0.99996710188014903 1.0000000180025095e-35 0.99999974705382688 1.0000000180025095e-35 0.99999974705382688 1.0000000180025095e-35 0.99999974705382688 1.0000000180025095e-35 0.99996710188014903 10.000011597264505 1.0000000180025095e-35 1.0000000180025095e-35 0.9999974586354391 0.99996710188014903 1.0000000180025095e-35 0.99999974705382688 1.0000000180025095e-35 0.75583139777472452 -0.26043885481581613 -0.26043885481581613 1.0000000180025095e-35 0.99999625705163087 1.0000000180025095e-35
decision_type=2 2 2 2 2 2 2 2 2 2 2 2 2 2 2 2 2 2 2 2 2 2 2 2 2 2 2 2 2 2
left_child=5 2 3 4 8 -1 -7 -3 9 10 -2 12 -12 -10 15 -15 -16 -8 -19 23 -18 22 -22 24 25 -14 -23 -28 -27 -29
right_child=1 7 -4 -5 -6 6 17 -9 13 -11 11 -13 19 14 16 -17 20 18 -20 -21 21 26 -24 -25 -26 28 27 29 -30 -31
leaf_value=-0.10487667648441973 -0.10475309290711805 0.1125084784304808 -0.10454226142615664 -0.10458511754197722 -0.10492105974560217 0.1125084784304808 -0.10485474145530967 -0.10481578606628167 0.11283099665242294 -0.11455945385153239 -0.11275782797885858 -0.12559855610195167 -0.1417909285484871 0.11322327877958918 -0.115921479734032 -0.11080343842703273 0.11273052206952922 -0.10483471434859593 0.1125084784304808 -0.12253900964459224 0.11294623348337096 -0.11559814184777246 -0.14444500374127825 0.1134515750238828 -0.14249450689186152 0.10999614343499926 -0.1062068058273257 -0.17879621633264925 -0.18605808816546279 0.10943163896765849
leaf_weight=49110.04364824295 908.41076527535915 618.10381963849068 1858.8440019264817 1299.5288496688008 738.89780805259943 3679.0764682590961 14871.384540885687 4431.903401080519 37888.697251752019 1671.2915553171188 249.01997885480523 384.56899232044816 204.37025822512805 655.13587379455566 270.54370550625026 974.36028886772692 9229.1944868117571 2094.6414889208972 606.73980057239532 96.998747728765011 636.28502056002617 55.559796839952469 534.33707153610885 9677.9940994307399 314.83850189298391 4588.0563603304327 35.139085672795773 15.529149124398826 16.415531005710363 4499.8038683608174
leaf_count=1106816 21034 6255 41784 29222 16561 37231 335108 99838 376323 31465 4272 3917 1335 6352 4811 16796 92178 47193 6140 1015 6270 970 8008 92846 1674 43144 706 125 101 43131
internal_value=0 0.074188 0.0842089 0.0888904 0.0923044 -0.0916296 -0.0610176 -0.078216 0.0943033 0.063542 0.081647 0.0925487 0.098087 0.104471 0.0857357 -0.0207339 0.0970925 -0.0973474 -0.0560187 0.101611 0.100933 0.0820844 -0.00454145 0.10308 0.0834895 0.0982849 0.1041 0.106783 0.108941 0.10844
internal_weight=0 81853.8 76803.8 74945 73645.4 70361.9 21251.8 5050.01 72906.6 18112 16440.7 15532.3 15147.7 54794.6 16905.9 1629.5 15276.4 17572.8 2701.38 14898.7 15005.8 5776.65 1170.62 14801.7 5123.68 4808.84 4606.03 4550.47 4604.47 4515.33
internal_count=2482621 950133 844040 802256 773034 1532488 425672 106093 756473 200803 169338 148304 144387 555670 179347 23148 156199 388441 53333 140115 151388 59210 14278 139100 46254 44580 44932 43962 43245 43256
is_linear=0
shrinkage=0.1


Tree=19
num_leaves=31
num_cat=0
split_feature=52 8 26 11 57 27 27 52 27 37 17 53 5 27 33 52 66 7 5 29 52 34 33 37 1 1 1 24 66 8
split_gain=93323.6 11167.6 6065.47 4422.88 2593.5 2580.86 12036.3 2303.39 2051.24 5210.45 2979.27 1668.73 1002.47 774.821 1819.86 1758.95 1114.66 493.15 1996.7 436.284 307.231 976.875 1710.91 282.076 1499.28 1088.4 241.175 149.144 142.943 131.699
threshold=1.0000000180025095e-35 0.99999625705163087 0.99990377308903888 0.9999597111130808 0.99999625705163087 1.0000000180025095e-35 0.99999974705382688 0.99996710188014903 1.0000000180025095e-35 0.99999974705382688 1.0000000180025095e-35 0.99999974705382688 1.0000000180025095e-35 0.99999974705382688 1.0000000180025095e-35 0.99996710188014903 10.000011597264505 1.0000000180025095e-35 1.0000000180025095e-35 0.9999974586354391 0.99996710188014903 1.0000000180025095e-35 0.99999974705382688 1.0000000180025095e-35 0.75583139777472452 -0.26043885481581613 -0.26043885481581613 1.0000000180025095e-35 11.999934203760299 1.0000000180025095e-35
decision_type=2 2 2 2 2 2 2 2 2 2 2 2 2 2 2 2 2 2 2 2 2 2 2 2 2 2 2 2 2 2
left_child=5 2 3 4 8 -1 -7 -3 9 10 -2 12 -12 -10 15 -15 -16 -8 -19 23 -18 22 -22 24 25 -14 -23 -28 -27 -26
right_child=1 7 -4 -5 -6 6 17 -9 13 -11 11 -13 19 14 16 -17 20 18 -20 -21 21 26 -24 -25 29 28 27 -29 -30 -31
leaf_value=-0.10439032082273435 -0.10428049381902833 0.11117745065551243 -0.1040176784290742 -0.10406846713181767 -0.10443100871910581 0.11117745065551243 -0.10436609473518164 -0.10432305235468509 0.11146279510263013 -0.11347448671098387 -0.11156926676741119 -0.12299593391081927 -0.13666517479938919 0.11180777898277734 -0.11463781746272689 -0.1097612761751585 0.11137425662494072 -0.10434398170828257 0.11117745065551243 -0.11991157319846397 0.11156357809583413 -0.11392683843431706 -0.14161595273171243 0.11201092699917209 -0.14747971538769233 -0.17043713433928928 -0.1212778577435822 0.10648698137459417 0.1082855493905187 0.1660367077737861
leaf_weight=44633.073615074158 825.49912467226386 565.63558883965015 1690.0022123791277 1181.4026564210653 671.55966680496931 3366.7751571685076 13515.973074570298 4028.1264342777431 34682.329267390072 1525.9730230066925 227.60040925815701 354.95646866038442 191.49606970511377 599.91083121299744 247.39971190132201 889.58160170912743 8447.3931702598929 1903.7689084745944 555.2362135052681 89.59241409227252 582.50342117995024 50.972783582285047 492.65746206231415 8863.8556848093867 290.09441342763603 18.480629624798894 28.949850007891655 4158.1699112020433 4216.9938199445605 14.047481209039686
leaf_count=1106816 21034 6255 41784 29222 16561 37231 335108 99838 376323 31465 4272 3917 1335 6352 4811 16796 92178 47193 6140 1015 6270 970 8008 92846 1612 117 434 43528 43128 62
internal_value=0 0.0732746 0.08314 0.0877473 0.091106 -0.0911683 -0.0606572 -0.0777882 0.0930718 0.0626214 0.080426 0.0911132 0.096576 0.103156 0.0845673 -0.0205217 0.0957415 -0.0968719 -0.0556799 0.100038 0.0995239 0.0806833 -0.0044477 0.101487 0.0817711 0.0965263 0.10228 0.104912 0.107069 -0.132999
internal_weight=0 74935.2 70341.4 68651.4 67470 63974.8 19341.8 4593.76 66798.5 16618.6 15092.6 14267.1 13912.2 50179.9 15497.5 1489.49 14008 15975 2459.01 13684.6 13760.6 5313.25 1075.16 13595 4731.11 4426.97 4238.09 4187.12 4235.47 304.142
internal_count=2482621 950133 844040 802256 773034 1532488 425672 106093 756473 200803 169338 148304 144387 555670 179347 23148 156199 388441 53333 140115 151388 59210 14278 139100 46254 44580 44932 43962 43245 1674
is_linear=0
shrinkage=0.1


Tree=20
num_leaves=31
num_cat=0
split_feature=52 8 26 11 27 27 57 52 27 37 17 53 5 27 33 52 66 7 5 29 52 34 33 37 1 1 17 24 28 38
split_gain=83782.1 9987.62 5426.73 3956.04 2334.45 10821.4 2319.42 2072.27 1845.35 4654.07 2660.56 1486.35 894.175 704.132 1620.53 1575.32 994.743 446.047 1795.27 388.638 286.504 863.962 1522.33 264.117 1319 964.72 223.609 156.58 127.254 126.916
threshold=1.0000000180025095e-35 0.99999625705163087 0.99990377308903888 0.9999597111130808 1.0000000180025095e-35 0.99999974705382688 0.99999625705163087 0.99996710188014903 1.0000000180025095e-35 0.99999974705382688 1.0000000180025095e-35 0.99999974705382688 1.0000000180025095e-35 0.99999974705382688 1.0000000180025095e-35 0.99996710188014903 10.000011597264505 1.0000000180025095e-35 1.0000000180025095e-35 0.9999974586354391 0.99996710188014903 1.0000000180025095e-35 0.99999974705382688 1.0000000180025095e-35 0.75583139777472452 -0.26043885481581613 1.0000000180025095e-35 1.0000000180025095e-35 0.99999625705163087 1.0000000180025095e-35
decision_type=2 2 2 2 2 2 2 2 2 2 2 2 2 2 2 2 2 2 2 2 2 2 2 2 2 2 2 2 2 2
left_child=4 2 3 6 -1 -6 8 -3 9 10 -2 12 -12 -10 15 -15 -16 -7 -19 23 -18 22 -22 24 25 -14 -23 -28 -27 -26
right_child=1 7 -4 -5 5 17 -8 -9 13 -11 11 -13 19 14 16 -17 20 18 -20 -21 21 26 -24 -25 29 28 27 -29 -30 -31
leaf_value=-0.10395422500989103 -0.10385669428349054 0.11000136204548042 -0.10353943141423641 -0.10359888821113979 0.11000136204548042 -0.10392748470279951 -0.10399170499981976 -0.10387991015071713 0.11025448710924302 -0.11244980767131936 -0.11049037361162449 -0.12067949286343441 -0.13221931152439978 0.1105587366585557 -0.11344662956560683 -0.10881209611643664 0.11017637039752076 -0.10390307593380287 0.11000136204548042 -0.11753424604957004 0.11034287757228536 -0.10536380545609798 -0.13885781008530851 0.1107399596526964 -0.1429614454922051 0.10648650117284737 -0.12386021864243793 0.10494986889141214 -0.18012075785848572 0.12779435067024625
leaf_weight=40546.452081680298 749.83502766862512 516.9996939226985 1535.8811748027802 1073.5760674215853 3077.2846689745784 12278.740236371756 610.0883546769619 3659.5552518703043 31708.151415094733 1392.7016083709896 207.84965918958187 327.02588721364737 178.79635481536388 548.63969039916992 226.08742256648839 811.59020501933992 7722.3591913580894 1729.5384536236525 507.49450370669365 82.622164925560355 532.60268412530422 52.121740393340588 454.18039844185114 8107.6750564277172 271.81498887389898 3876.6067077443004 30.143787620589137 3821.6047256104648 15.553829254582523 18.490293802693486
leaf_count=1106816 21034 6255 41784 29222 37231 335108 16561 99838 376323 31465 4272 3917 1335 6352 4811 16796 92178 47193 6140 1015 6270 1246 8008 92846 1567 43144 365 43321 101 107
internal_value=0 0.0724495 0.0821747 0.0867152 -0.0907549 -0.0603347 0.0900242 -0.0774044 0.0919603 0.0617958 0.0793346 0.0898312 0.0952266 0.101967 0.0834598 -0.0203303 0.0944557 -0.0964453 -0.0553766 0.0986332 0.0981824 0.0792438 -0.00435514 0.100066 0.0802218 0.0949075 0.100375 0.103159 0.105341 -0.125716
internal_weight=0 68532.6 64356 62820.1 58139.5 17593.1 61746.5 4176.55 61136.5 15229 13836.3 13086.4 12759.4 45907.5 14199.3 1360.23 12839.1 14515.8 2237.03 12551.6 12613 4890.65 986.783 12468.9 4361.26 4070.96 3903.87 3851.75 3892.16 290.305
internal_count=2482621 950133 844040 802256 1532488 425672 773034 106093 756473 200803 169338 148304 144387 555670 179347 23148 156199 388441 53333 140115 151388 59210 14278 139100 46254 44580 44932 43686 43245 1674
is_linear=0
shrinkage=0.1


Tree=21
num_leaves=31
num_cat=0
split_feature=52 8 26 11 27 27 57 52 27 37 17 53 5 27 33 52 66 7 5 29 52 34 33 37 1 1 1 66 66 53
split_gain=75271.8 8941.79 4860.2 3542.19 2111.61 9735.54 2076.53 1865.42 1663.22 4160.68 2378.32 1325.49 798.409 641.03 1444.74 1412.21 888.673 403.447 1615.2 346.586 267.478 765.057 1355.45 248.135 1162.92 856.125 205.662 145.843 128.276 122.502
threshold=1.0000000180025095e-35 0.99999625705163087 0.99990377308903888 0.9999597111130808 1.0000000180025095e-35 0.99999974705382688 0.99999625705163087 0.99996710188014903 1.0000000180025095e-35 0.99999974705382688 1.0000000180025095e-35 0.99999974705382688 1.0000000180025095e-35 0.99999974705382688 1.0000000180025095e-35 0.99996710188014903 10.000011597264505 1.0000000180025095e-35 1.0000000180025095e-35 0.9999974586354391 0.99996710188014903 1.0000000180025095e-35 0.99999974705382688 1.0000000180025095e-35 0.75583139777472452 -0.26043885481581613 -0.26043885481581613 12.000053381812998 11.999934203760299 1.0000000180025095e-35
decision_type=2 2 2 2 2 2 2 2 2 2 2 2 2 2 2 2 2 2 2 2 2 2 2 2 2 2 2 2 2 2
left_child=4 2 3 6 -1 -6 8 -3 9 10 -2 12 -12 -10 15 -15 -16 -7 -19 23 -18 22 -22 24 25 -14 -23 -28 -27 -29
right_child=1 7 -4 -5 5 17 -8 -9 13 -11 11 -13 19 14 16 -17 20 18 -20 -21 21 26 -24 -25 -26 28 27 29 -30 -31
leaf_value=-0.10356282551624363 -0.10347632335714517 0.10895954604677099 -0.10310155862355369 -0.10317047391965853 0.10895954604677099 -0.10353329509787912 -0.10359752198030457 -0.10348071826582837 0.1091846227224062 -0.11148143288967305 -0.1095110660300303 -0.11861294379564034 -0.12833560565167332 0.10945361430507926 -0.1123419608200223 -0.10794660693571763 0.10911563690741966 -0.10350633805978365 0.10895954604677099 -0.11537196665523011 0.1092623400612896 -0.11291968818766854 -0.13618309243944851 0.10961563250890649 -0.11922712496712191 -0.16603248691715933 -0.16528452243085176 -0.1619037955904456 0.10502327905588288 0.10416863554379324
leaf_weight=36819.535344600677 680.8456742297858 472.04439427703619 1395.3250268138945 975.24048118665814 2809.7018134817481 11150.408106401563 554.0240993462503 3323.4253793880343 28957.448070071638 1270.5601762272418 189.6661639995873 300.79592048563063 166.42376712709665 501.18513679504395 206.48161195591092 739.94505468010902 7051.9256827235222 1570.6438737139106 463.36572036147118 76.088997254148126 486.44052562862635 45.383437136188149 418.62133799679577 7407.5173039957881 276.29358000308275 17.545491684228182 20.401512319222093 17.389579882845283 3557.4274750351906 3509.2633978482336
leaf_count=1106816 21034 6255 41784 29222 37231 335108 16561 99838 376323 31465 4272 3917 1335 6352 4811 16796 92178 47193 6140 1015 6270 970 8008 92846 1674 117 252 237 43128 43473
internal_value=0 0.0717059 0.0813049 0.0857855 -0.0903841 -0.0600457 0.0890499 -0.0770594 0.0909593 0.0610376 0.0783344 0.0886569 0.0939897 0.100903 0.082453 -0.0201575 0.0932861 -0.096062 -0.0551047 0.0973456 0.0969623 0.0779063 -0.00426437 0.0987623 0.0787517 0.0933719 0.098608 0.101314 0.103693 0.102857
internal_weight=0 62617.7 58822.2 57426.9 52813.7 15994.1 56451.7 3795.47 55897.6 13943.2 12672.6 11991.8 11691 41954.5 12997 1241.13 11755.9 13184.4 2034.01 11501.3 11549.4 4497.5 905.062 11425.2 4017.69 3741.4 3592.44 3547.05 3574.97 3526.65
internal_count=2482621 950133 844040 802256 1532488 425672 773034 106093 756473 200803 169338 148304 144387 555670 179347 23148 156199 388441 53333 140115 151388 59210 14278 139100 46254 44580 44932 43962 43245 43710
is_linear=0
shrinkage=0.1


Tree=22
num_leaves=31
num_cat=0
split_feature=52 8 26 11 27 27 57 52 27 37 17 53 5 27 33 52 66 7 5 29 52 34 33 37 1 1 34 31 66 66
split_gain=67669.6 8012.72 4356.6 3174.47 1910.08 8763.8 1860.78 1680.09 1501.77 3722.25 2127.74 1183.21 713.493 584.713 1289.22 1267.07 794.62 364.922 1454.04 309.364 250.162 677.952 1207.68 234.075 1025.03 760.695 208.412 684.342 117.866 114.48
threshold=1.0000000180025095e-35 0.99999625705163087 0.99990377308903888 0.9999597111130808 1.0000000180025095e-35 0.99999974705382688 0.99999625705163087 0.99996710188014903 1.0000000180025095e-35 0.99999974705382688 1.0000000180025095e-35 0.99999974705382688 1.0000000180025095e-35 0.99999974705382688 1.0000000180025095e-35 0.99996710188014903 10.000011597264505 1.0000000180025095e-35 1.0000000180025095e-35 0.9999974586354391 0.99996710188014903 1.0000000180025095e-35 0.99999974705382688 1.0000000180025095e-35 0.75583139777472452 -0.26043885481581613 0.99999974705382688 1.0000000180025095e-35 19.963828988528977 11.999934203760299
decision_type=2 2 2 2 2 2 2 2 2 2 2 2 2 2 2 2 2 2 2 2 2 2 2 2 2 2 2 2 2 2
left_child=4 2 3 6 -1 -6 8 -3 9 10 -2 12 -12 -10 15 -15 -16 -7 -19 23 -18 22 -22 24 25 -14 -23 -28 29 -27
right_child=1 7 -4 -5 5 17 -8 -9 13 -11 11 -13 19 14 16 -17 20 18 -20 -21 21 26 -24 -25 -26 28 27 -29 -30 -31
leaf_value=-0.10321122441812491 -0.10313465106919258 0.1080346256007616 -0.10269873320545227 -0.10277797567398224 0.1080346256007616 -0.1031786091546443 -0.10324354434072776 -0.10312051038142292 0.10823517288479707 -0.11056613317483298 -0.10862223037411461 -0.11676560327292895 -0.12492014942042345 0.10847351802730454 -0.11131838949708361 -0.10715647395045283 0.10817421722315446 -0.10314882999322546 0.1080346256007616 -0.11339456749972743 0.10830364535867609 0.10875381187788731 -0.13360210799981173 0.10861863615177524 -0.11241089902494582 -0.15863377525614586 -0.16103656044675807 0.09943295911841693 -0.1650038896507941 0.1048237235501714
leaf_weight=33423.401140928268 617.99153736047447 430.59296987950802 1267.243043217808 885.63277805410326 2562.9747180789709 10122.221833720803 502.93287420459092 3017.1290149725974 26419.860658429563 1158.6853195782751 172.9497282858938 276.25647840276361 154.49079792760313 457.37869393825531 188.4628372490406 674.21540519222617 6433.5344806611538 1425.8520540632308 422.67639249563217 69.987363396212459 443.84624841809273 2705.185653410852 385.73022072203457 6760.9704007357359 264.36921829916537 16.577545208856463 128.42703621834517 470.08054435998201 16.432801753282547 3248.4637249298394
leaf_count=1106816 21034 6255 41784 29222 37231 335108 16561 99838 376323 31465 4272 3917 1335 6352 4811 16796 92178 47193 6140 1015 6270 36601 8008 92846 1674 117 1991 6340 122 43006
internal_value=0 0.0710314 0.0805159 0.0849423 -0.090051 -0.0597863 0.0881663 -0.0767489 0.0900515 0.0603345 0.0774074 0.0875685 0.092842 0.0999481 0.0815291 -0.020001 0.0922114 -0.0957173 -0.0548605 0.0961505 0.0958414 0.0766452 -0.00417587 0.0975524 0.077333 0.0919322 0.0969398 0.0435417 0.102142 0.103486
internal_weight=0 57167.4 53719.7 52452.5 47957.1 14533.7 51566.8 3447.72 51063.9 12757.2 11598.5 10980.5 10704.2 38306.7 11886.9 1131.59 10755.3 11970.8 1848.53 10531.3 10566.8 4133.27 829.576 10461.3 3700.33 3435.96 3303.69 598.508 3281.47 3265.04
internal_count=2482621 950133 844040 802256 1532488 425672 773034 106093 756473 200803 169338 148304 144387 555670 179347 23148 156199 388441 53333 140115 151388 59210 14278 139100 46254 44580 44932 8331 43245 43123
is_linear=0
shrinkage=0.1


Tree=23
num_leaves=31
num_cat=0
split_feature=52 8 26 11 27 27 57 52 27 37 17 53 5 27 33 52 66 7 5 29 52 34 33 37 1 1 34 31 38 31
split_gain=60881.9 7189.02 3909.75 2848.37 1727.84 7893.16 1669.51 1513.86 1360.13 3332.91 1905.45 1057.42 638.275 528.158 1154.75 1137.73 712.315 330.081 1309.63 276.445 228.231 607.443 1076.76 220.378 905.529 677.016 191.629 608.866 119.077 113.093
threshold=1.0000000180025095e-35 0.99999625705163087 0.99990377308903888 0.9999597111130808 1.0000000180025095e-35 0.99999974705382688 0.99999625705163087 0.99996710188014903 1.0000000180025095e-35 0.99999974705382688 1.0000000180025095e-35 0.99999974705382688 1.0000000180025095e-35 0.99999974705382688 1.0000000180025095e-35 0.99996710188014903 10.000011597264505 1.0000000180025095e-35 1.0000000180025095e-35 0.9999974586354391 0.99996710188014903 1.0000000180025095e-35 0.99999974705382688 1.0000000180025095e-35 0.75583139777472452 -0.26043885481581613 0.99999974705382688 1.0000000180025095e-35 1.0000000180025095e-35 0.99999625705163087
decision_type=2 2 2 2 2 2 2 2 2 2 2 2 2 2 2 2 2 2 2 2 2 2 2 2 2 2 2 2 2 2
left_child=4 2 3 6 -1 -6 8 -3 9 10 -2 12 -12 -10 15 -15 -16 -7 -19 23 -18 22 -22 24 25 -14 -23 -28 -26 -29
right_child=1 7 -4 -5 5 17 -8 -9 13 -11 11 -13 19 14 16 -17 20 18 -20 -21 21 26 -24 -25 28 -27 27 29 -30 -31
leaf_value=-0.10289512490444164 -0.10282752223803947 0.10721184760786036 -0.10232618700260628 -0.10241669308166249 0.10721184760786036 -0.10285909988568619 -0.10292542359838031 -0.10279488725380433 0.1073908625556611 -0.10970119208600251 -0.10781558151006339 -0.11511134823109492 -0.12189710591466624 0.10760247664398376 -0.11037089312371269 -0.10643417264249694 0.10733700809338165 -0.10282620228494979 0.10721184760786036 -0.11157584313269725 0.10745133339729254 0.10785302106266954 -0.13112290501661705 0.10773267268928224 -0.12552272847541654 0.10074278655846053 -0.15966683386135169 0.1079555393096755 0.13698292047154606 -0.14476793638807275
leaf_weight=30330.916681289673 560.76693520881236 392.45374102145433 1150.6119197383523 804.03700830228627 2335.9624671414495 9185.9664893969893 456.40733367949724 2738.2187883853912 24084.009697999805 1056.269355295226 157.60251494310796 253.37532413378358 143.07698505371809 417.03206944465637 171.91770728304982 613.98463984020054 5864.3851779699326 1294.006180498749 385.23836448788643 64.306731750257313 404.6313006952405 2467.1506126746535 355.28703573066741 6165.3139566555619 233.9632276147604 3008.6337496172637 117.15228974539787 416.12562668323517 18.658427651971579 18.494021624326706
leaf_count=1106816 21034 6255 41784 29222 37231 335108 16561 99838 376323 31465 4272 3917 1335 6352 4811 16796 92178 47193 6140 1015 6270 36601 8008 92846 1567 43245 1991 6096 107 244
internal_value=0 0.0704468 0.0798328 0.0842128 -0.0897516 -0.0595533 0.0874022 -0.0764689 0.0892666 0.0596968 0.0765679 0.0865828 0.091802 0.0991389 0.0808155 -0.0198593 0.0913907 -0.0954069 -0.054641 0.0950676 0.0949877 0.0758227 -0.00409004 0.0964562 0.0760342 0.0906357 0.0959382 0.0426633 -0.106134 0.0972016
internal_weight=0 52133.9 49003.2 47852.6 43532.1 13201.2 47048.5 3130.67 46592.1 11662 10605.7 10044.9 9791.56 34930.2 10846.2 1031.02 9815.14 10865.2 1679.24 9633.95 9643.23 3778.84 759.918 9569.65 3404.33 3151.71 3018.92 551.772 252.622 434.62
internal_count=2482621 950133 844040 802256 1532488 425672 773034 106093 756473 200803 169338 148304 144387 555670 179347 23148 156199 388441 53333 140115 151388 59210 14278 139100 46254 44580 44932 8331 1674 6340
is_linear=0
shrinkage=0.1


Tree=24
num_leaves=31
num_cat=0
split_feature=52 8 26 11 27 27 57 52 27 37 17 53 5 27 33 52 66 7 5 37 1 1 52 34 33 34 31 28 8 31
split_gain=54802.9 6454.65 3511.16 2557.58 1563.03 7112.3 1499.01 1364.63 1237.32 2984.65 1706.53 945.218 571.026 475.752 1036.2 1022.29 639.41 298.573 1180.1 260.227 894.172 685.624 206.58 546.686 960.692 172.239 546.185 124.927 115.371 101.316
threshold=1.0000000180025095e-35 0.99999625705163087 0.99990377308903888 0.9999597111130808 1.0000000180025095e-35 0.99999974705382688 0.99999625705163087 0.99996710188014903 1.0000000180025095e-35 0.99999974705382688 1.0000000180025095e-35 0.99999974705382688 1.0000000180025095e-35 0.99999974705382688 1.0000000180025095e-35 0.99996710188014903 10.000011597264505 1.0000000180025095e-35 1.0000000180025095e-35 1.0000000180025095e-35 0.75583139777472452 -0.26043885481581613 0.99996710188014903 1.0000000180025095e-35 0.99999974705382688 0.99999974705382688 1.0000000180025095e-35 0.99999625705163087 1.0000000180025095e-35 0.99999625705163087
decision_type=2 2 2 2 2 2 2 2 2 2 2 2 2 2 2 2 2 2 2 2 2 2 2 2 2 2 2 2 2 2
left_child=4 2 3 6 -1 -6 8 -3 9 10 -2 12 -12 -10 15 -15 -16 -7 -19 20 21 -14 -18 24 -24 -25 -27 -23 -22 -28
right_child=1 7 -4 -5 5 17 -8 -9 13 -11 11 -13 19 14 16 -17 22 18 -20 -21 28 27 23 25 -26 26 29 -29 -30 -31
leaf_value=-0.10261072632532263 -0.10255126296126525 0.10647865826826108 -0.1019795906387207 -0.10208239101188417 0.10647865826826108 -0.102570918555074 -0.10263933739381598 -0.10249997190971834 0.10663870436511523 -0.1088841933311213 -0.10708361651082743 -0.11362778523797018 -0.11824161424999446 0.1068269218373854 -0.10949477495644205 -0.10577288283513396 0.10659113137630623 -0.10253458369599106 0.10647865826826108 0.1069533432373975 -0.11805231423280754 0.10036795948022147 0.10669219226081064 0.1070513269618078 -0.12875139241917083 -0.1582956608762332 0.1071414195676138 -0.17621644444600487 0.1712680097820978 -0.14244244463839492
leaf_weight=27516.740711450577 508.70014742203057 357.42701221257448 1044.4759059343487 729.78450528904796 2127.4764335229993 8333.9695632532239 414.06687261536717 2484.4088528379798 21937.96177745983 962.5601163059473 143.52973328158259 232.1035071182996 153.72606810741127 379.94563782215118 156.73897150158882 558.85288432426751 5341.5482175908983 1174.0257393568754 350.85561230778694 5617.842326849699 256.58477893471718 2753.4589527966455 368.59740579873323 2248.233083602041 327.09743170812726 106.8760364158079 379.2407278418541 16.42802747618407 14.565250456333159 16.993471443653107
leaf_count=1106816 21034 6255 41784 29222 37231 335108 16561 99838 376323 31465 4272 3917 1750 6352 4811 16796 92178 47193 6140 92847 2137 43189 6270 36601 8008 1991 6096 130 62 244
internal_value=0 0.0699155 0.0792122 0.0835503 -0.0894823 -0.0593436 0.0867084 -0.076216 0.088554 0.0590666 0.0757381 0.0856089 0.0907723 0.0984315 0.0802154 -0.0197306 0.0907046 -0.095127 -0.0544433 0.0939947 0.0712076 0.0873191 0.094275 0.0751899 -0.00400719 0.0952154 0.0423243 0.0987276 -0.102511 0.0964374
internal_weight=0 47511.7 44669.9 43625.4 39503.1 11986.3 42895.7 2841.84 42481.6 10659.5 9696.94 9188.24 8956.14 31822.1 9884.12 938.799 8945.33 9858.85 1524.88 8812.61 3194.76 2923.61 8788.59 3447.04 695.695 2751.34 503.11 2769.89 271.15 396.234
internal_count=2482621 950133 844040 802256 1532488 425672 773034 106093 756473 200803 169338 148304 144387 555670 179347 23148 156199 388441 53333 140115 47268 45069 151388 59210 14278 44932 8331 43319 2199 6340
is_linear=0
shrinkage=0.1


Tree=25
num_leaves=31
num_cat=0
split_feature=52 8 26 11 27 27 57 52 27 37 17 53 5 27 33 52 66 7 5 37 1 1 52 34 33 34 31 66 66 8
split_gain=49355.2 5799.48 3155.36 2298.11 1413.99 6411.34 1346.89 1230.56 1125.75 2674.86 1529.73 845.783 511.341 428.933 930.56 919.128 574.379 270.078 1063.81 245.363 792.38 610.108 187.129 492.412 857.726 155.008 490.064 114.911 115.677 99.5616
threshold=1.0000000180025095e-35 0.99999625705163087 0.99990377308903888 0.9999597111130808 1.0000000180025095e-35 0.99999974705382688 0.99999625705163087 0.99996710188014903 1.0000000180025095e-35 0.99999974705382688 1.0000000180025095e-35 0.99999974705382688 1.0000000180025095e-35 0.99999974705382688 1.0000000180025095e-35 0.99996710188014903 10.000011597264505 1.0000000180025095e-35 1.0000000180025095e-35 1.0000000180025095e-35 0.75583139777472452 -0.26043885481581613 0.99996710188014903 1.0000000180025095e-35 0.99999974705382688 0.99999974705382688 1.0000000180025095e-35 19.963828988528977 11.999934203760299 1.0000000180025095e-35
decision_type=2 2 2 2 2 2 2 2 2 2 2 2 2 2 2 2 2 2 2 2 2 2 2 2 2 2 2 2 2 2
left_child=4 2 3 6 -1 -6 8 -3 9 10 -2 12 -12 -10 15 -15 -16 -7 -19 20 21 -14 -18 24 -24 -25 -27 28 -23 -22
right_child=1 7 -4 -5 5 17 -8 -9 13 -11 11 -13 19 14 16 -17 22 18 -20 -21 29 27 23 25 -26 26 -28 -29 -30 -31
leaf_value=-0.1023546642260075 -0.10230262663366355 0.10582427955235339 -0.10165500464124873 -0.10177121900985174 0.10582427955235339 -0.10231069278961363 -0.10238191525002992 -0.10223229011395918 0.10596756710021774 -0.10811287430729966 -0.10641950667041529 -0.1122956036543295 -0.11601853194298564 0.10613523880575133 -0.10868559298872281 -0.10516638763866243 0.10592555686369927 -0.10227055441429081 0.10582427955235339 0.10625017156483574 -0.11367093594637485 -0.15648616781913383 0.10601497159685931 0.10633659941119622 -0.12649156465258432 -0.15687463168541058 0.095749878663002871 -0.16545396487905403 0.10075060244671517 0.16051169812381572
leaf_weight=24957.290526628494 461.35263548791409 325.31103741377592 947.94585935585201 662.25307373702526 1936.315784804523 7559.0909768715501 375.55724840424955 2253.572774656117 19969.585147298872 876.85944979637861 130.64022770058364 212.37988769263029 141.62561936303973 345.91501861810684 142.82549521885812 508.43891734909266 4862.0499899573624 1064.9053747337312 319.33009907603264 5115.155782032758 240.6555457226932 17.604250208474696 335.54240287840366 2047.2596995830536 300.98879738710821 97.537823942489922 360.98764272872359 16.543778942897916 2508.6698109321296 14.015063792467116
leaf_count=1106816 21034 6255 41784 29222 37231 335108 16561 99838 376323 31465 4272 3917 1750 6352 4811 16796 92178 47193 6140 92847 2137 143 6270 36601 8008 1991 6340 128 43048 62
internal_value=0 0.0694366 0.0786528 0.0829533 -0.0892397 -0.0591547 0.0860835 -0.0759872 0.0879121 0.0584929 0.0749841 0.0847244 0.0898366 0.0977982 0.0796749 -0.0196135 0.0900868 -0.0948743 -0.054265 0.0930198 0.0699941 0.0859868 0.0936336 0.0746144 -0.00392758 0.0945659 0.0420114 0.0972378 0.0989581 -0.0985821
internal_weight=0 43271.3 40692.4 39744.4 35836.9 10879.6 39082.2 2578.88 38706.6 9735.5 8858.64 8397.29 8184.91 28971.1 9001.55 854.354 8147.19 8943.33 1384.24 8054.27 2939.11 2684.44 8004.37 3142.32 636.531 2505.79 458.525 2542.82 2526.27 254.671
internal_count=2482621 950133 844040 802256 1532488 425672 773034 106093 756473 200803 169338 148304 144387 555670 179347 23148 156199 388441 53333 140115 47268 45069 151388 59210 14278 44932 8331 43319 43191 2199
is_linear=0
shrinkage=0.1


Tree=26
num_leaves=31
num_cat=0
split_feature=52 8 26 11 27 27 57 52 27 37 17 53 5 27 33 52 66 7 5 37 1 1 52 34 33 34 31 28 38 31
split_gain=44466.3 5213.48 2837 2066 1279.21 5781.6 1210.84 1110.01 1023.12 2399.02 1372.38 757.539 458.305 388.781 835.312 826.84 515.943 244.307 959.326 230.523 703.33 543.707 171.375 442 766.319 143.635 435.715 109.048 99.19 96.2663
threshold=1.0000000180025095e-35 0.99999625705163087 0.99990377308903888 0.9999597111130808 1.0000000180025095e-35 0.99999974705382688 0.99999625705163087 0.99996710188014903 1.0000000180025095e-35 0.99999974705382688 1.0000000180025095e-35 0.99999974705382688 1.0000000180025095e-35 0.99999974705382688 1.0000000180025095e-35 0.99996710188014903 10.000011597264505 1.0000000180025095e-35 1.0000000180025095e-35 1.0000000180025095e-35 0.75583139777472452 -0.26043885481581613 0.99996710188014903 1.0000000180025095e-35 0.99999974705382688 0.99999974705382688 1.0000000180025095e-35 0.99999625705163087 1.0000000180025095e-35 0.99999625705163087
decision_type=2 2 2 2 2 2 2 2 2 2 2 2 2 2 2 2 2 2 2 2 2 2 2 2 2 2 2 2 2 2
left_child=4 2 3 6 -1 -6 8 -3 9 10 -2 12 -12 -10 15 -15 -16 -7 -19 20 21 -14 -18 24 -24 -25 -27 -23 -22 -28
right_child=1 7 -4 -5 5 17 -8 -9 13 -11 11 -13 19 14 16 -17 22 18 -20 -21 28 27 23 25 -26 26 29 -29 -30 -31
leaf_value=-0.10212397854223428 -0.10207873850288925 0.10523942107440305 -0.10134880724311482 -0.10147967741179767 0.10523942107440305 -0.10207539047667805 -0.10215014312654509 -0.10198874629234962 0.10536786366214675 -0.10738501320418747 -0.10581704830257471 -0.11109805242916966 -0.11400777966815988 0.10551745415276106 -0.10793912922941501 -0.10460900387330585 0.10533079818475868 -0.10203105336421198 0.10523942107440305 0.10562215974318415 -0.11362674454750449 0.097649221766143379 0.10540993779227098 0.10569842388785185 -0.12434566120096879 -0.15535732281131723 0.1058300216695137 -0.17162130938255549 0.12719680529915708 -0.14169114536726476
leaf_weight=22630.704862594604 418.31809460930526 295.90591141954064 860.19735928252339 600.8658307492733 1761.2906455732882 6854.7130965963006 340.55000385455787 2043.7387200687081 18166.817106302828 798.52068381384015 118.84688424970955 194.13476949557662 130.29250541422516 314.73579686880112 130.08214410953224 462.38126715924591 4422.9375382885337 965.71304250508547 290.46559490263462 4654.49825232476 220.32779110595584 2316.4491717852652 305.26498952135444 1863.0502814650536 276.80693352222443 89.075095178559422 317.31999796628952 15.138083931058643 18.542257394641638 16.531223864294589
leaf_count=1106816 21034 6255 41784 29222 37231 335108 16561 99838 376323 31465 4272 3917 1750 6352 4811 16796 92178 47193 6140 92847 2060 43189 6270 36601 8008 1991 6096 130 139 244
internal_value=0 0.068995 0.0781369 0.0824029 -0.0890211 -0.0589844 0.0855073 -0.0757796 0.0873203 0.057973 0.0743016 0.0839235 0.088989 0.0972103 0.0791337 -0.0195069 0.0894631 -0.0946458 -0.054104 0.0921367 0.0688959 0.0847917 0.092985 0.0739461 -0.00385138 0.0937554 0.0411447 0.095901 -0.0949328 0.0935736
internal_weight=0 39391.3 37051.7 36191.5 32502.9 9872.18 35590.6 2339.64 35250.1 8885.07 8086.55 7668.23 7474.09 26365 8198.19 777.117 7421.07 8110.89 1256.18 7355.25 2700.75 2461.88 7290.99 2868.05 582.072 2285.98 422.926 2331.59 238.87 333.851
internal_count=2482621 950133 844040 802256 1532488 425672 773034 106093 756473 200803 169338 148304 144387 555670 179347 23148 156199 388441 53333 140115 47268 45069 151388 59210 14278 44932 8331 43319 2199 6340
is_linear=0
shrinkage=0.1


Tree=27
num_leaves=31
num_cat=0
split_feature=52 8 26 11 27 27 57 52 27 37 17 53 5 27 33 52 66 7 5 37 1 1 52 34 33 34 31 2 1 31
split_gain=40076.5 4689.14 2552.02 1858.28 1157.31 5215.42 1089.12 1001.56 933.71 2151.53 1231.08 678.483 410.706 351.065 751.133 744.189 464.035 221.001 865.384 218.58 623.731 483.89 155.45 398.608 685.117 129.611 390.861 110.764 333.167 86.3746
threshold=1.0000000180025095e-35 0.99999625705163087 0.99990377308903888 0.9999597111130808 1.0000000180025095e-35 0.99999974705382688 0.99999625705163087 0.99996710188014903 1.0000000180025095e-35 0.99999974705382688 1.0000000180025095e-35 0.99999974705382688 1.0000000180025095e-35 0.99999974705382688 1.0000000180025095e-35 0.99996710188014903 10.000011597264505 1.0000000180025095e-35 1.0000000180025095e-35 1.0000000180025095e-35 0.75583139777472452 -0.26043885481581613 0.99996710188014903 1.0000000180025095e-35 0.99999974705382688 0.99999974705382688 1.0000000180025095e-35 -0.4667886212384606 0.51345517474262814 0.99999625705163087
decision_type=2 2 2 2 2 2 2 2 2 2 2 2 2 2 2 2 2 2 2 2 2 2 2 2 2 2 2 2 2 2
left_child=4 2 3 6 -1 -6 8 -3 9 10 -2 12 -12 -10 15 -15 -16 -7 -19 20 21 -14 -18 24 -24 -25 -27 28 -23 -28
right_child=1 7 -4 -5 5 17 -8 -9 13 -11 11 -13 19 14 16 -17 22 18 -20 -21 -22 27 23 25 -26 26 29 -29 -30 -31
